784 100
topping -0.5338844 0.25704792 0.1134408 -0.06379157 -0.13585435 0.82564694 -0.55368036 -0.05520099 -0.2053661 -0.499143 0.021430777 0.45865703 0.5419789 0.11925831 0.18036626 0.43583015 -0.27001992 -0.7491328 -0.1698077 0.48850194 -0.2683155 0.27597222 -0.06730742 0.3398127 -0.16136333 -0.6421147 -0.2184784 0.46966228 -0.17393236 -0.07782954 -0.079297826 -0.3564317 -0.862626 -0.09307917 0.57577854 -0.24022776 0.61357766 0.19253257 -0.3388735 0.041309614 -0.08610088 0.2631253 0.04816889 -0.21112345 -0.23725586 -0.16304047 -0.061248288 0.3914046 0.26847675 0.2268578 0.34406856 -0.37638995 -0.20812455 -0.422397 0.32188097 -0.1884888 0.33219737 -0.26572978 0.0777663 0.27012756 0.6204907 -0.23290902 -0.36986566 0.0054090223 0.2684993 0.28963125 0.3224902 -0.30599672 -0.3054577 -0.17203692 0.36457577 -0.441642 -0.32945722 -0.17234056 0.0673682 0.07364432 0.16283013 -0.45630378 -0.09279864 0.062721156 0.4845024 -0.12537006 -0.49477446 0.12757275 0.32785073 0.3813352 -0.5011438 0.055699736 0.4676974 0.09527374 0.44670627 0.28947273 0.20252499 0.032458335 0.051980842 -0.40240377 -0.1241231 -0.2464801 0.06338679 0.1437062
of -0.085960016 0.032526612 0.28614405 0.01948682 0.14979424 0.21648893 -0.047160175 0.23868698 0.35515374 -0.4565054 -0.07905064 0.1740936 0.27036572 0.112155326 0.11618478 0.23146822 -0.4779763 -0.4534205 -0.07327092 0.27746263 -0.23627745 0.17765807 -0.16252978 0.121417396 0.3481309 -0.40467027 -0.08836313 0.2575532 -0.08236851 -0.08496436 0.1623388 -0.39798412 -0.68411547 -0.12210271 0.45124227 -0.08492691 0.4257741 -0.26536843 -0.4320702 0.36352062 0.4617502 -0.042593233 -0.06313228 -0.10844118 0.15973546 -0.35476807 -0.06462927 0.21262217 0.65512604 -0.3098408 0.52656287 -0.33451864 -0.0606575 -0.31513834 -0.06628482 0.39229685 -0.098518506 -0.40979517 -0.040726013 0.36241537 0.65885115 -0.048443303 -0.16771646 0.4095586 0.28901327 0.13057223 0.019424243 0.23662019 -0.24884099 -0.3555421 0.2327548 -0.510051 -0.113738626 -0.22627279 0.36264446 -0.32419202 0.280912 -0.38781968 -0.07279493 0.3006507 0.6568876 0.10511044 -0.33813086 0.2611516 0.27521664 0.10124812 -0.43967474 0.09075523 0.24814263 -0.3930953 0.24199809 0.3600722 0.66562206 0.18570666 0.053752463 -0.29523343 -0.08284943 -0.065675355 -0.4812819 -0.037119437
has -0.6169573 0.10218017 0.14900872 0.24816 0.16273677 0.30894452 0.06269735 0.1277062 -0.0090891775 -0.33425802 0.087281704 0.38732538 0.13749857 -0.1409169 0.21110901 -0.05756748 -0.6066422 -0.6021152 -0.1404331 0.36767316 -0.43514287 -0.04821682 -0.19639337 0.3603248 0.2496198 -0.69683266 -0.21572705 0.07437099 0.12658715 0.07087643 -0.14564855 -0.35251632 -0.7191098 -0.03333288 0.4849015 -0.563606 0.48062563 -0.2754704 -0.14882995 0.19561706 -0.045523964 -0.040177044 0.29476073 -0.36575007 0.010722829 -0.84002745 0.122946054 -0.13231575 0.3146689 -0.33869487 0.23383763 -0.19423346 -0.19254921 -0.6660111 0.1537554 0.17129365 0.33810276 -0.37997514 -0.36802936 0.6416412 0.6398733 -0.24182488 -0.079402044 0.3126209 0.30208147 0.08223832 -0.060550265 -0.4531511 -0.1430936 0.13246588 0.07994987 -0.2791666 -0.39880025 0.09599664 0.14730085 -0.41277504 0.33575302 0.06146551 0.045751773 -0.2548151 0.1743138 -0.10323844 -0.3993044 0.14695837 0.2662641 0.4824681 -0.66742694 -0.13957246 0.3300778 0.010667293 0.28497595 0.06254114 0.3167576 -0.04450865 0.066628285 -0.29695034 0.27787632 -0.12562065 -0.24436556 -0.03238951
subclassof -0.10225878 0.053081445 0.028097877 0.4377884 0.08462508 0.28577334 -0.41401866 0.23391326 0.2785739 -0.011792883 -0.31928757 0.24250798 0.1320918 0.007053104 0.24911122 0.35495022 -0.0909121 -0.27354407 -0.078805305 0.20369264 -0.030318595 -0.05930151 0.044895325 0.39034468 0.03773907 -0.6633048 -0.43209317 0.15769617 0.043924607 0.086177886 -0.1433831 -0.6626704 -0.6594289 -0.11008412 0.3573558 -0.036019094 0.3320129 -0.19904755 0.036615215 0.63954484 0.3754564 -0.080071315 0.15783376 -0.39184585 0.14264607 -0.48045713 0.20631972 -0.018902807 0.34054783 0.08445944 0.39477694 -0.32737476 -0.2310458 -0.23267174 -0.006012851 0.092185915 0.163209 -0.19776863 -0.36453122 0.23646456 0.52100945 -0.056691084 -0.10072673 0.22359347 0.3205196 0.2718654 0.28788337 -0.22705127 0.084737755 -0.42609262 0.5406184 -0.09611922 -0.41373736 -0.27386242 0.46789557 -0.16849896 0.3287108 -0.19536337 -0.16975826 0.29015946 0.3068453 0.39127252 -0.3145935 0.06746097 -0.22806863 0.01729561 -0.43399057 -0.024859954 0.3345987 -0.08971584 0.46243295 0.06279906 0.41128471 0.3499642 -0.0773368 -0.287357 0.17505716 -0.24958786 -0.062060542 -0.17295544
pizza 0.11139922 0.034552537 0.15158105 0.6114894 0.20663601 0.53395736 -0.091970295 -0.07173101 0.1752342 -0.65811926 -0.018607039 0.046446264 0.1417845 -0.03679806 -0.2661091 0.10978213 0.079506226 -0.7604301 -0.105401374 0.27380154 -0.13372116 -0.02536337 0.05202136 0.41834542 0.3444666 -0.8851259 -0.13122185 0.2619441 -0.3702318 -0.0096707335 -0.26868883 -0.3947839 -0.44641 -0.4967901 0.024759803 -0.84458625 0.31117314 -0.014317365 -0.49218348 0.21242924 0.4751569 -0.3522823 0.063698925 -0.2756807 0.17864463 -0.27719304 -0.011821036 0.6601959 0.28241694 -0.11273695 0.4635236 0.032467708 0.18720752 -0.3095463 0.3554481 -0.010662538 -0.13979104 -0.09713667 -0.085689306 0.11690582 0.8871984 -0.3686109 -0.08434672 0.43349743 -0.061225194 0.2322311 0.18166268 -0.1607971 -0.39743292 -0.08293543 0.41001576 -0.096545674 -0.17758472 -0.1504669 0.30046737 -0.021787979 0.5750125 -0.011030405 -0.07889778 -0.36994055 0.41333762 0.3452365 -0.6243669 0.28717917 -0.15630476 -0.012764569 -0.3755662 -0.27718842 0.33268133 0.13209507 0.42390737 0.69995517 0.3696406 0.13451871 -0.028668152 -0.31370863 -0.2556705 -0.30294833 -0.067589976 -0.108255826
is -0.37906972 0.03978043 0.46194926 0.25084037 -0.39121705 0.4613881 -0.07133619 -0.1673776 0.1346311 -0.549548 0.3081633 0.10330102 0.45676145 -0.008193376 0.29792005 -0.3063566 -0.040873557 -0.37182853 -0.42729455 0.16931154 -0.4887742 0.053088162 -0.36533037 0.14256054 -0.0015478338 -0.44947034 0.029881228 0.07142247 -0.15506525 -0.060531665 -0.2699541 -0.29353797 -0.64799273 -0.32079965 0.13486849 -0.02026081 0.33753875 -0.23422213 -0.18839483 0.14728272 0.32658195 -0.11411306 0.17705491 -0.20526166 -0.07639291 -0.69679844 -0.2811903 0.28937155 0.5116174 0.027193248 0.3385171 -0.45596486 0.027060237 -0.16101827 0.35049444 -0.23454027 0.27966744 -0.07585946 -0.046965275 0.69441175 0.3210477 -0.42100993 -0.41431287 -0.11425912 0.42707717 -0.068168335 0.053493038 -0.27286586 -0.43556556 -0.1532205 0.7157887 -0.32038802 -0.48042318 -0.24928614 0.24085923 -0.2978911 0.52163374 -0.36665016 0.025696117 -0.14037487 0.23987843 -0.16862287 -0.47020337 0.14657249 0.29728848 0.18090467 -0.42957035 -0.31539193 0.82382756 -0.11071325 0.4178092 0.7705066 0.41937613 0.3427816 -0.16726841 0.14985791 -0.039441988 -0.24256943 -0.2035945 -0.18434927
class -0.10803925 0.43917048 0.44091517 0.37111297 0.22293285 0.42547673 -0.37024033 0.15487085 0.37973243 -0.19852462 -0.030704215 0.27152133 0.3809237 0.28963602 0.32488242 0.2317143 -0.28108576 -0.5931452 -0.34190345 0.19038056 -0.34684065 0.26466095 -0.2922161 0.43603426 0.32260522 -0.574663 -0.40551612 0.12518446 -0.0937198 -0.25881186 0.01848951 -0.123771474 -0.49841022 -0.16581228 -0.091052376 0.104929395 0.20489708 -0.45294008 0.20469151 0.6972165 0.23464315 0.18698333 0.35385445 -0.104684755 0.14863598 -0.35124516 0.055911165 0.08391517 0.6290882 0.26968 0.06553132 -0.18665577 -0.37728953 0.037182298 0.2546942 0.23636158 0.25026515 -0.24423109 -0.2392551 0.20442528 0.16851178 0.14168243 -0.24343832 0.046790343 0.37930304 0.068464406 0.060946576 0.023620592 0.32537112 -0.58887917 0.57623893 0.09046363 0.059408993 -0.3932296 0.39791164 -0.03870727 0.31627947 -0.38806298 -0.34053272 0.73627895 0.24902605 0.22274013 0.046187136 0.2173978 -0.28344315 0.08749213 -0.28182945 0.06204302 0.36540186 0.32361415 0.35364282 0.65897655 0.38531762 0.6542859 -0.19078682 -0.10338978 0.24065708 -0.10824216 -0.38427892 -0.1720689
super -0.13885234 0.32452524 -0.0018544998 0.4248024 0.013493539 0.049585316 -0.6637946 0.106771454 0.28738058 -0.16377337 0.10198977 0.03815894 0.45066154 0.12134357 0.5833136 0.09624906 0.023389902 -0.069268174 0.18611777 0.35797346 -0.51137793 0.2513491 0.27149934 0.102224514 0.2543519 -0.5306926 0.08851898 -0.089750275 0.20964916 -0.020266043 -0.094778344 -0.29238933 -0.41643116 0.0014616158 0.04916446 -0.11319363 0.47376433 -0.28234154 -0.017268393 0.4094728 0.32548594 0.14337277 0.31267497 -0.12644707 0.25698212 -0.347172 0.10345635 0.059788298 0.647559 -0.22342335 0.3744472 -0.22374816 -0.3705461 0.07948448 0.16961093 -0.1108591 0.08090985 -0.06341795 -0.20742194 0.45406532 0.22667684 -0.0033676685 0.1942091 0.38780302 0.4452258 0.15500914 0.5766151 -0.23052764 -0.21320838 -0.5107424 0.5411526 -0.11434386 -0.34123504 -0.43765208 0.5507852 -0.078179985 0.40776953 -0.36738646 -0.4385253 0.52114177 0.30808368 0.1443626 -0.550339 -0.13987143 -0.15242514 0.14155914 -0.38248152 -0.24227531 0.39154243 -0.4719175 -0.17579307 0.63602424 0.342623 0.709181 0.056234576 -0.40283072 0.4741266 -0.19371545 -0.2841517 -0.2145733
label -0.33842748 -0.073961824 0.24409364 0.15482919 -0.08131896 0.41825357 -0.40743783 -0.028187748 0.21781948 -0.16791105 0.16575089 0.37427357 0.16329326 0.23852529 0.31813544 0.3451123 -0.54539484 -0.55800486 0.13663073 -0.10891121 -0.5333698 -0.11890855 -0.110458106 0.29822424 0.23157245 -0.5163656 -0.29112995 0.060705267 0.08975359 0.17475815 -0.05207733 -0.40505105 -0.6142619 -0.08544982 0.30695036 -0.27383015 0.32171324 -0.29045072 0.054425005 0.29320714 0.18657894 -0.097357355 0.1817063 -0.05728554 -0.04978104 -0.4638024 0.092371665 0.16293292 0.53479326 -0.007982173 0.45783296 -0.02531705 -0.090942375 0.09538238 0.10039429 -0.12226823 0.041427076 -0.4134159 -0.20055936 0.32719326 0.57789075 0.040265553 -0.21579358 0.25403258 0.4994546 0.15643138 0.25687823 -0.028829155 0.121534884 -0.3171515 0.53941727 -0.33118647 -0.22543402 -0.39454275 0.24157587 -0.31395563 0.38194254 -0.4244712 0.02060661 0.0009668341 0.33972016 0.30288854 -0.32361275 0.029794008 0.09055329 0.34149763 -0.4598493 -0.3212866 0.28156367 -0.243975 0.15526806 0.25888193 0.21800654 0.33770457 -0.14413589 -0.2525162 0.006874137 -0.17078637 -0.41410494 -0.22186539
preflabel -0.38717777 -0.00033896818 0.21871693 0.19768716 -0.0070144646 0.44565606 -0.30043542 0.05804331 0.21546263 -0.28841558 0.15141472 0.3526388 0.056318346 0.27771896 0.21849708 0.35271147 -0.60950905 -0.46078163 0.14445412 -0.029360516 -0.48141485 -0.15235318 -0.098154545 0.28239846 0.20312488 -0.56770086 -0.19938248 0.051514104 0.11103618 0.157641 -0.08598921 -0.44591346 -0.6950694 -0.07974108 0.23741579 -0.2596544 0.3863216 -0.25984496 0.030811438 0.31299102 0.1312096 0.009665606 0.23767363 -0.13411105 -0.093247406 -0.52271813 0.21435957 0.057140693 0.53022844 0.0089943865 0.3979487 -0.14357597 -0.089712955 0.019125495 0.13694474 -0.05574494 0.041648094 -0.49131528 -0.16185941 0.37806103 0.5748629 -0.031786688 -0.13923833 0.34588525 0.4709056 0.19479467 0.23200259 -0.13151418 0.00541677 -0.41702878 0.408803 -0.19561014 -0.21971117 -0.38620326 0.18539743 -0.22673936 0.33102044 -0.31927475 -0.025276786 0.051213138 0.2535613 0.2850209 -0.33459824 0.07332025 0.15389174 0.35497394 -0.4463076 -0.2968144 0.171993 -0.15376125 0.16539487 0.25254223 0.29932478 0.2697569 -0.15359405 -0.14728975 0.031720165 -0.20126392 -0.3724244 -0.19301714
http://www.w3.org/2000/01/rdf-schema#subClassOf 0.066667415 0.15559502 -0.066391416 0.2844647 -0.00241464 0.2987448 -0.41218162 0.29638395 -0.04197209 0.4329116 -0.52726805 0.36290243 -0.3211807 0.39250374 0.16799526 -0.07226424 -0.21322492 -0.28015822 -0.5245801 -0.032484014 0.04030803 -0.110149674 0.14397332 0.46894988 0.43352082 -0.08123027 0.35209754 0.19597842 0.13282728 -0.31285465 -0.012230305 -0.481605 -0.27729622 0.06274323 0.0004958619 -0.004658346 0.10790601 -0.21256135 0.14182383 0.36613455 0.5157782 -0.22024189 0.118565604 -0.115591995 -0.31484085 -0.45754358 0.15805168 0.26650822 0.5337613 -0.4230984 0.2511252 -0.3059979 -0.30267748 -0.02086506 -0.44425005 0.09337818 0.061107855 -0.31589362 -0.18359126 -0.1937536 -0.072725676 0.059702933 -0.48759097 0.11790629 0.5287668 -0.3859305 0.3510078 0.50903195 0.11774764 -0.53364915 0.40049943 0.020365752 0.03269615 -0.5767023 0.4080758 -0.109640166 0.1849508 -0.13794178 -0.19779481 0.36734563 -0.0878583 -0.27640077 -0.56586224 0.261707 -0.34491962 0.26077613 0.004446949 -0.40436026 0.15603231 -0.15637857 -0.1231605 0.2890822 0.13718961 0.30746242 -0.2550776 -0.26866564 0.32456776 0.16197108 -0.7750018 -0.115760975
spiciness -0.6851857 0.0323129 0.34794313 0.1754954 -0.05010253 0.6864213 -0.511947 0.21636775 0.5200342 -0.8413068 0.13543124 0.49806458 0.11677958 0.11660858 0.35051265 0.32386193 -0.20543244 -0.81477684 -0.07842006 0.38693786 -0.32364213 -0.12957712 -0.10866622 0.20263357 0.22801402 -0.19941863 -0.2691671 0.4968456 -0.20944372 0.20531788 0.08628653 -0.63044333 -0.22431046 -0.106418304 0.31729105 -0.38824007 0.4626625 -0.21285643 -0.04852004 0.33704293 -0.036658425 -0.29229483 0.78590745 -0.22591937 -0.2758602 -0.103040814 0.1431748 0.14341202 0.47535858 0.5899722 0.5778604 -0.3394188 -0.25187254 -0.30608696 -0.37304544 -0.13019511 -0.13914591 -0.20590387 -0.41126683 0.5029501 0.2804288 0.00829401 -0.05360292 0.57216763 0.53686816 -0.21385437 0.20923877 0.02966178 -0.03502856 -0.0088966 0.35268956 -0.060913425 -0.6981489 -0.72932327 -0.33409593 -0.56233424 0.11509524 -0.22298656 -0.07722388 -0.18297601 -0.12275348 0.73470795 -0.11695734 -0.27637216 0.17938688 -0.31221747 -1.1110451 -0.3278276 0.63155246 -0.30005115 0.16762614 0.08856359 -0.08892077 0.4315463 0.27315918 -0.24726628 0.12143012 -0.34912923 -0.0021477106 -0.51642543
pizzatopping -0.22401929 -0.095264606 0.11586372 0.10861354 0.10361411 0.9811512 -0.9247827 0.24935092 0.37354994 -0.19236432 0.641658 0.14909407 0.5010056 0.23421255 -0.018108606 0.5036175 -0.39919743 -0.37454483 -0.03861012 0.21071608 -0.06958304 0.41463375 -0.3535364 0.39522904 0.24229898 -0.7974944 -0.36090392 0.0687312 -0.19001678 -0.048192266 0.4458525 -0.37394443 0.12406009 -0.29591635 0.11754596 -0.29374298 0.49753964 -0.1181672 -0.20568751 0.014870482 -0.03409773 0.30239046 0.5603628 -0.33768722 0.20814805 -0.28596878 0.033139445 0.15993787 -0.037779447 0.2728431 0.6131385 -0.30749115 -0.43820953 -0.12943614 0.26952076 0.015670577 0.10106869 0.22358976 -0.5154915 0.29675815 -0.08243111 -0.035007864 -0.1656175 0.72140056 -0.30865407 -0.013082107 0.1464641 -0.07152 -0.25797394 -0.16531347 0.6491321 -0.2415609 0.021489417 -0.63625926 0.4359391 -0.0012084965 0.22119796 -0.6336915 -0.1389213 0.42689577 0.46459562 0.27319407 -0.28676358 -0.012433947 -0.19295205 0.25742778 -0.22830841 0.05221223 0.29571083 0.08673696 -0.056351192 0.43949702 0.17932267 0.8230961 0.29437843 -0.48673382 0.20119965 0.37415794 -0.13379085 -0.17593971
http://www.semanticweb.org/owl2vec#superClassOf 0.11639965 0.5595022 0.019519748 0.2520169 -0.14192109 0.22898233 -0.52203184 0.28094137 -0.11562635 0.37913916 -0.37549013 0.030961756 -0.1256007 0.65217304 0.24913703 -0.2113589 -0.084505804 -0.36958247 -0.5035367 0.05253313 -0.09416018 0.0702513 0.0072507123 0.30371007 0.42007056 -0.13488935 0.364812 0.12665842 0.21642248 -0.28816047 0.19400664 -0.24116692 -0.42052597 0.2564435 -0.019778462 0.19352627 -0.0040020514 -0.32257733 0.1823232 0.2631009 0.35857755 -0.21660192 0.001436153 -0.09256735 -0.24806651 -0.15244804 0.211281 0.36673796 0.7912133 -0.010186042 -0.16306198 -0.6874322 -0.3515752 -0.20620944 -0.45073995 0.20143563 0.114278845 -0.48982617 -0.09341816 -0.15345943 -0.27486444 -0.08173525 -0.39511 0.06529879 0.852122 -0.39197937 0.53755766 0.45698306 -0.0027621044 -0.28527504 0.49432105 -0.09676784 -0.066379756 -0.65528935 0.43756497 0.38033462 0.13349296 -0.07019633 -0.2763751 0.6126009 -0.0660086 -0.4845384 -0.6901443 -0.0862038 -0.5849296 0.25535205 -0.2611377 -0.24854591 0.21026663 -0.0513174 -0.14098322 0.4197822 0.15728205 0.17521046 -0.19626719 -0.2694574 0.55965936 0.058051426 -0.61177963 -0.055345297
http://www.co-ode.org/ontologies/pizza/pizza.owl#hasTopping -0.2172138 0.18105318 -0.35041013 -0.029576339 -0.2942142 0.40650696 -0.41207898 0.54636866 -0.6291708 -0.07002182 -0.5418226 0.41415522 -0.34959427 0.17889507 0.07691109 0.016738897 -0.2593804 -0.46793434 -0.31026244 0.30079862 0.46874836 0.29005563 -0.027696248 0.39370525 -0.11575864 -0.110335924 0.44288298 0.24210726 -0.044942748 -0.23525019 -0.060348906 -0.668501 -0.7074643 0.07061008 0.40438566 -0.4849471 0.20930885 0.4199414 -0.42863277 0.12573363 0.41225138 0.008266567 0.10896717 -0.11165845 -0.66653603 -0.6789391 0.5500641 0.014847461 0.18459904 -0.49906608 0.1690576 -0.5489558 -0.6767965 -0.7279259 -0.08106488 -0.3157046 0.43967533 -0.29120862 -0.08151124 0.13063908 0.3431314 -0.37609527 -0.80980366 -0.2202131 0.46077034 -0.22020295 0.29805022 -0.24970537 -0.28823522 -0.31320792 0.0062034302 -0.10284286 -0.27835828 -0.081169 0.63615614 0.21378142 -0.077227384 -0.23378123 0.055094413 -0.007822522 -0.07969702 -0.90254146 -0.50238615 0.26849127 -0.13847388 0.58118165 -0.22635521 -0.5000968 0.0064289495 0.2522589 -0.12608911 0.14757271 -0.12840176 -0.25538087 -0.16934721 -0.51731145 0.20339878 0.25682452 -0.31850174 0.36765155
tomato -0.5538563 0.20606281 -0.21053366 0.062424246 0.17501536 0.2509958 -0.03301408 0.1729516 0.09420131 -0.7557632 -0.40385386 0.38953334 0.09411442 -0.031082956 -0.01756952 0.6348407 -0.17370111 -1.1151024 -0.2602407 0.38819084 -0.055727568 0.3694563 -0.033898998 0.16243716 0.4631815 -0.9919194 -0.1485012 0.16079251 -0.99301624 0.080595665 -0.5386835 -0.46309343 -0.20103727 -0.7580512 0.46308178 -0.36254984 0.016543949 -0.59706575 -0.017708741 0.011307392 0.38779256 0.37077504 -0.2887859 -0.05683555 -0.6762195 -0.31188482 0.19730903 0.40628818 0.819443 -0.25944495 0.36105585 0.045947418 -0.0010818986 -0.38305455 0.20529945 -0.29308018 0.03552965 -0.081140056 0.2763148 0.3602919 0.01953394 0.15085182 -0.29154474 0.5645229 0.7158398 0.08570589 0.27900842 -0.367588 -0.2582812 0.45065835 -0.3317672 0.15628965 -0.23981687 -0.1901956 -0.09694837 -0.09082045 -0.095300965 -0.6660869 -0.38929275 0.02914138 0.043555677 -0.10154767 -0.40492764 0.5405765 0.10766446 0.26041472 -0.56582904 -0.4080983 0.65336454 -0.43191946 0.5022269 0.12133009 -0.20747513 -0.08191114 0.30121607 -0.32923043 0.3538514 -0.15334938 -0.024552323 -0.042475984
http://www.co-ode.org/ontologies/pizza/pizza.owl#isToppingOf -0.24969594 0.32807913 0.28519955 -0.08517766 -0.4083479 0.59933954 -0.37152115 -0.067228295 -0.20863582 -0.017339092 -0.16027416 0.2713278 -0.036729883 0.4361431 -0.15037505 -0.35483396 -0.17648841 -0.5783981 -0.77986586 0.5163433 0.16105427 0.017260974 0.047993336 -0.04941466 -0.1979381 0.32076016 0.46284458 0.35007808 -0.19088604 -0.38675857 0.27516368 -0.41214707 -0.67575437 0.09724683 0.27141538 0.16468887 0.08610269 0.26925185 -0.468799 -0.18207206 0.51117206 -0.28504467 0.1403446 -0.016871013 -0.7224582 -0.4558918 -0.13688411 0.33599275 0.8711547 -0.116453044 0.22827552 -0.81489515 -0.334709 -0.32405773 -0.5238062 -0.1641768 0.2751359 -0.22617488 0.11853481 0.12330168 -0.09139479 -0.09425389 -0.892967 -0.16296734 0.5254176 -0.31977555 0.25409994 0.6373215 -0.38791886 0.010874082 0.60563904 -0.33698082 -0.21884662 -0.5009149 0.24395587 0.16036445 0.14641829 -0.3224455 0.27493683 0.031562112 0.17390127 -0.8278152 -0.8903032 0.22718246 -0.06647441 0.18573217 -0.4106859 -0.44754395 0.50948626 -0.44811624 0.26404488 0.55311835 0.07973336 0.3092227 -0.64068663 -0.26207095 0.05814075 -0.3194166 -0.5840254 -0.055340633
mozzarellatopping -0.13865677 0.350714 -0.12223137 -0.023784813 0.312836 -0.18251567 0.08964532 0.28626066 0.085514 -0.38862157 -0.57828623 0.19716676 0.2943639 0.06933619 0.27245465 0.13588028 -0.21538737 -0.90959036 -0.26821613 0.3770704 0.03124306 0.29055047 -0.0036776823 -0.1798605 -0.11804374 -0.7725589 -0.19066669 0.20676954 -0.5511339 -0.006854795 -0.24194954 0.036671057 -0.22512583 -0.13241965 0.11923363 -0.2526587 0.20149748 -0.24418248 -0.17165461 -0.008643751 -0.028962169 0.22921807 -0.066339485 -0.13539794 -0.5446099 -0.32602233 0.05612459 0.44847578 1.0038637 -0.04433959 0.25420183 0.034226928 0.24847071 -0.52448744 -0.06913455 -0.18118122 0.23857245 -0.14722642 0.108319804 0.05901193 0.30649707 -0.6044303 -0.17716105 0.19168495 0.7366634 0.14742431 0.45647663 -0.43386802 -0.7713399 0.32523787 -0.22513483 0.17316894 -0.37500927 0.08597299 0.18592107 -0.57541347 -0.32695347 -0.5981068 -0.032669593 -0.35532495 -0.08877605 -0.29716873 -0.5909547 0.5497873 0.025826996 0.59164166 -0.5861434 -0.43125093 0.23143795 0.5412155 0.6197335 0.5695787 0.25227186 -0.25586674 0.01393389 -0.5926432 0.47131172 -0.41744688 0.31220028 -0.18006165
http://www.w3.org/2000/01/rdf-schema#label -0.1907005 0.17005661 -0.12820114 -0.0026371505 -0.030487278 0.29902393 -0.46432224 -0.05860574 -0.1986356 0.41429147 -0.43635055 0.4767726 -0.5549865 0.49240342 0.25432137 -0.003326882 -0.45486143 -0.37482852 -0.3958548 -0.11554658 -0.16207798 -0.17716005 0.09203469 0.4821145 0.35395235 -0.1089187 0.2221158 0.17534733 0.2643842 -0.12448779 -0.000970455 -0.33814287 -0.23238112 0.0940688 -0.052859195 -0.27687073 0.043165162 -0.39181814 0.10512673 0.11402074 0.44365576 -0.29176623 0.2920072 -0.05818789 -0.25293162 -0.51168454 0.08758106 0.21011728 0.3649567 -0.3498744 0.37029755 -0.1917644 -0.30592066 0.024108525 -0.3960413 -0.02092005 -0.01360145 -0.37588525 -0.079659246 -0.19518688 0.04651943 -0.02599916 -0.451966 0.10110984 0.50841224 -0.34201503 0.18244174 0.2942756 0.099105805 -0.26493806 0.18206756 0.22853482 -0.2749563 -0.56130433 0.20118019 -0.14102304 0.071684636 -0.123221435 -0.01219204 0.1852481 -0.10538612 -0.18397358 -0.58267164 0.23543233 -0.12674603 0.38369128 0.15294133 -0.37789986 -0.0009790763 -0.12022468 -0.13234568 0.21576087 0.04417497 0.34039062 -0.3835363 -0.42026216 0.3226568 0.2355056 -0.57292765 -0.123908445
http://www.w3.org/2004/02/skos/core#prefLabel -0.11993792 0.1591713 -0.021894066 -0.09270831 -0.088142306 0.3960669 -0.44999477 0.08242172 -0.23837017 0.33853468 -0.4918156 0.5131558 -0.45510742 0.54693264 0.3239985 -0.13929667 -0.45058724 -0.3677019 -0.31538567 -0.23867759 -0.08859626 -0.23647727 -0.0034400802 0.48021412 0.30713147 -0.11916217 0.15607783 0.17834137 0.20742732 -0.17005989 0.08652212 -0.3310276 -0.16458707 0.042274833 -0.074984394 -0.18361232 -0.043730214 -0.39876592 0.13904034 0.06829004 0.37455952 -0.29214436 0.27765152 0.05515097 -0.35042995 -0.3617921 -0.046659622 0.28683025 0.36670047 -0.39602417 0.28593653 -0.1839169 -0.34494537 -0.001586561 -0.41663218 0.10860445 0.044434372 -0.3816064 -0.10262226 -0.20923783 -0.004187394 0.023467742 -0.46181616 -0.04586313 0.5854906 -0.23454456 0.16131753 0.364305 0.22836125 -0.22900686 0.31205538 0.08213334 -0.09837969 -0.46447036 0.2505983 -0.25682783 0.081777744 -0.1310609 -0.09305444 0.18793574 -0.020919446 -0.19744045 -0.6007619 0.2838612 -0.06664452 0.46815118 0.10275837 -0.45096678 -0.14549285 -0.14853562 -0.00072458235 0.24092127 -0.025335604 0.34703526 -0.29833922 -0.42257795 0.38008565 0.43626648 -0.4389486 -0.24398234
altlabel -0.23724581 0.3484518 -0.093857795 0.4285845 0.17089677 0.4009787 -0.7625416 -0.20343673 -0.02893606 -0.06667907 -0.49566865 0.38397712 -0.20811449 0.41666403 -0.18541849 0.41585234 -0.59053344 -0.47162178 0.13762522 0.3538827 -0.46341857 0.08856471 -0.3738431 0.5383465 -0.26762143 -0.6322582 -0.29833338 0.27657658 -0.31816038 -0.37639475 -0.26161438 -0.33008796 -0.8421945 -0.5157913 0.62121356 -0.4712175 0.35389623 -0.2912937 -0.16778418 0.12871239 0.0057122274 0.04562674 0.26589528 -0.13443501 -0.68784267 -0.52878004 0.16482243 0.50304586 0.4330637 0.023581365 0.40624863 -0.33261836 0.2681893 -0.14682975 0.35200387 -0.13519055 0.23841487 -0.5579121 0.078355856 0.5023958 0.30883616 0.1698775 -0.30298603 -0.040057372 0.6680131 0.33573207 0.18118878 -0.36177048 -0.3018754 -0.3624164 0.4110565 -0.4209017 -0.12171078 -0.18629351 -0.04903512 -0.09917668 0.3155834 -0.4383988 -0.08107214 -0.5817372 0.39445317 0.07737284 -0.86387765 -0.02356725 0.34847206 0.80175716 -0.19449104 -0.3485625 0.1420321 -0.22736235 0.55211633 0.49731073 0.27731946 0.15379366 -0.020304276 -0.023612492 0.011218116 -0.20752373 -0.15779807 -0.1257023
tomatotopping -0.59051913 0.37286752 -0.13659701 0.034835365 0.2586599 0.18415588 0.12022374 0.013015165 0.08690001 -0.8116014 -0.27220574 0.22176495 0.1561805 -0.01041763 0.005037134 0.57264185 -0.044873077 -1.3020841 -0.08584282 0.26378202 -0.4259881 0.40558735 -0.039147735 0.34381884 0.55861354 -1.1344008 -0.17627406 0.325558 -0.9458127 -0.07045447 -0.6173527 -0.34829777 -0.4558139 -0.6041429 0.22130081 -0.4310685 0.20550044 -0.74318725 -0.08330734 0.013227517 0.3246508 0.3284711 -0.01661108 -0.07964577 -0.3862018 -0.17316781 0.1136694 0.65594643 0.9779082 -0.12181592 0.22544236 0.043204285 0.11505942 -0.35498238 0.26170826 -0.08837494 0.12058717 -0.20776121 0.49239853 0.6196106 0.39059 0.108375154 -0.15093915 0.41616577 0.7202461 0.12753224 0.18819664 -0.29007202 -0.4881421 0.23335195 -0.047298923 0.22219527 -0.26483327 0.14812417 -0.09623451 -0.18199977 0.04188351 -0.58372384 -0.5441609 -0.11448142 0.34988454 -0.025511362 -0.5102886 0.40654066 0.15763539 0.34854624 -0.4215507 -0.5698544 0.6037074 -0.45114955 0.4384329 0.4523485 0.09936471 -0.26075873 0.13409781 -0.39263666 0.20213251 -0.25234136 -0.32632574 -0.11687928
http://www.co-ode.org/ontologies/pizza/pizza.owl#PizzaTopping 0.0657362 -0.08365969 -0.24329919 -0.2631643 -0.14619629 0.925786 -1.2378685 0.31343442 -0.054216146 0.19946529 0.31776 0.31622574 0.22954799 0.34698611 -0.02838335 0.15416412 -0.17432982 -0.17772235 -0.6086402 0.16367526 0.26569277 0.1638106 -0.35399687 0.2722635 0.2398599 -0.47973272 0.17043135 -0.09588731 -0.20494074 -0.15171553 0.5633685 -0.64317626 0.35591474 -0.27069744 -0.2708802 -0.26293686 -0.0037442702 -0.20444083 -0.16989163 0.09589761 0.090208285 -0.03708743 0.61013156 -0.44377884 -0.2580949 -0.5433593 0.13887289 0.31927156 0.20071597 0.13521752 0.38700932 -0.4605239 -0.62846625 -0.32569605 -0.4813199 0.008622566 0.4247781 0.41541007 -0.5458836 0.049670354 -0.79997885 0.13917884 -0.6378517 0.39577293 -0.20091756 -0.57792866 0.11440761 0.238681 -0.28980106 -0.17550358 0.51669675 -0.10459641 0.2576619 -0.8279547 0.5796037 0.17252667 0.101660095 -0.68513864 -0.12769231 0.24284552 0.09757809 -0.529098 -0.48453623 -0.04687498 -0.3306711 0.2916054 0.11560074 -0.089009546 0.27971137 0.12477501 -0.40521073 0.15631697 -0.0136644915 0.75934595 0.14975215 -0.48777378 0.45965272 0.51992434 -0.38351434 0.02055384
mozzarella -0.25923467 0.29245707 0.061315432 0.016098011 0.47706982 -0.31250688 0.2769672 0.32423967 -0.0014783703 -0.7182392 -0.52110934 0.057847317 0.34564903 0.0066724825 0.2778264 0.28323781 -0.19740942 -1.1619931 -0.064909935 0.13095179 -0.34167206 0.5056642 0.13684674 -0.038545918 0.31789798 -0.95316076 -0.28140497 0.4425852 -0.7148725 -0.025505945 -0.33051744 -0.04519383 -0.52304786 -0.10711431 0.047506347 -0.5659883 0.35825503 -0.52314895 -0.19305986 0.043020543 -0.04901025 0.1530123 0.056996632 -0.065375485 -0.37432134 -0.27291498 0.04310116 0.75310993 1.1704037 -0.0031410132 0.14738591 0.0021199705 0.40156633 -0.4476141 -0.008677981 -0.02058234 0.26924866 -0.37816063 0.44102645 0.37648472 0.76425403 -0.33143684 0.02994599 0.30316997 0.8313687 0.0019393372 0.39819917 -0.355587 -0.9000704 0.13895857 -0.1857087 0.23367763 -0.39704528 0.42068714 0.051840134 -0.693485 -0.0003224169 -0.4788759 -0.18018003 -0.3077245 0.22826128 -0.22210623 -0.6411907 0.357679 0.10195637 0.574667 -0.2889398 -0.58519477 0.39841095 0.31535745 0.53328484 0.9896513 0.68033266 -0.50603265 0.14828978 -0.6499555 0.29976928 -0.4389751 0.06463753 -0.22925372
pepper -0.22830977 -0.2798065 0.49050587 0.049792726 -0.19155234 0.22594252 -0.10615473 0.688091 -0.43899417 -0.70785654 -0.5580911 -0.31599072 0.56155825 0.4312296 -0.19951688 0.6061665 0.038629327 -0.867212 -0.8721663 0.033751246 -0.42955863 0.56499976 -0.2754786 0.2380245 0.37130314 -0.16674486 -0.6420767 -0.13068873 -0.5297102 -0.24526402 -0.21894975 0.10728842 -0.059411857 -0.49566963 0.1299004 0.07246978 0.02463249 -0.20475075 0.65566546 0.22599313 -0.73869 -0.17983474 -0.21867113 -0.66491157 0.21963288 -0.023211977 0.54702854 0.47453856 0.96171194 -0.58581877 0.37006146 -0.39720407 -0.5171987 -0.5678846 0.74402946 0.27064607 0.788587 0.39003825 -0.5595896 -0.13220471 0.3022129 -0.0734036 -0.38038665 0.8845382 0.25438315 0.14871925 0.089820996 0.247463 -0.99637175 0.07088313 0.43474165 0.14510228 -0.5667128 -0.30841592 -0.25092778 -0.49694523 -0.25908515 -0.863593 -0.41763532 -0.49466524 0.04780999 0.34230754 -0.6410954 -0.11545878 -0.2270627 0.032928552 -1.037926 -0.9018244 -0.1137632 -0.1958761 -0.04636895 0.17609957 0.83312064 -0.14278363 0.15132092 -0.825846 0.7745091 0.527176 0.064700305 0.505974
hot 0.17191672 -0.5537852 0.58057123 -0.2826104 -0.44282886 0.011952142 -0.3622925 0.66416514 -0.29833943 -0.8299211 -0.47973907 0.74005735 0.6331611 0.44523925 -0.47735703 0.30477977 0.029455239 -0.7034666 -0.69488746 0.6306179 -0.5966064 -0.38689902 0.07768146 0.12633286 -0.1266875 -0.5237285 -0.3912213 0.4446174 -0.93087846 0.14439361 0.50364894 -0.062239997 0.2796288 -0.06588154 0.2127074 0.065079324 0.34628218 -0.46147192 0.08695395 0.118676454 -0.4346922 0.31268165 0.63943684 -0.5932579 0.2910544 -0.39852768 -0.033263534 0.2206609 0.25901043 -0.72532594 0.3841487 -0.32616955 -0.16111764 -0.80142653 0.7027195 0.21242438 0.43578747 0.21100977 -0.6573723 0.37871033 0.61656314 0.0634273 0.43041912 0.1486258 0.34281194 0.03758183 0.35775408 -0.099677525 -0.1573636 -0.062167678 0.23705074 0.6007423 0.37796876 -0.47590116 0.642101 -0.41335806 0.15203974 -0.40489537 0.50113815 0.1758659 0.44720525 0.38601547 -0.48567572 -0.08400771 -0.0140657555 0.07516079 -0.39419726 -0.24952666 0.5120674 -0.32492605 -0.5133946 0.20996435 0.43480217 -0.071440786 -0.2263311 -0.6607397 0.45140138 0.3574038 0.4959711 0.010660206
http://www.co-ode.org/ontologies/pizza/pizza.owl#Pizza 0.21829961 -0.19529182 -0.34947425 0.2665831 0.120447405 0.32768446 -0.029330539 0.12828533 -0.45924073 0.16141427 -0.009152326 0.23681773 -0.59892356 -0.11332497 -0.43942958 -0.067298375 0.54241204 -1.0087647 -0.5852124 0.22847652 0.49684125 -0.12507398 0.41129607 0.39857084 0.24445595 0.56805986 0.3998339 0.3922152 -0.5312583 -0.40687647 -0.8321136 -0.024353364 -0.23457325 -0.03728948 -0.12109869 -0.74912906 -0.09845606 -0.21110348 -0.22183105 0.7591825 0.82864237 -0.572809 -0.1364215 -0.11683333 -0.40991062 -0.29993463 -0.23700874 0.59576756 0.52682245 -0.21099213 0.5561822 -0.046734963 0.1175893 -0.15666397 -0.25556204 -0.3238768 0.11545026 -0.06028167 0.39721125 0.1350291 0.3233715 0.13451095 -0.3129617 0.18817392 0.47617847 0.046168916 0.17633522 0.05752368 -0.27872795 0.4126023 0.28826874 0.36022767 0.20178315 0.07359955 0.42606264 -0.34373656 0.3413092 0.16985585 -0.115915634 0.037061047 0.079217255 -0.7555309 -1.253608 0.3144836 -0.45361415 0.22117268 -0.25435808 -0.5722919 -0.26306188 0.3747892 0.26469547 0.7570232 0.26405588 -0.6414458 -0.034884896 -0.16948862 -0.40967357 -0.29183945 -0.13791327 -0.25139734
american 0.6582615 0.44865847 -0.08030724 0.12937117 -0.70337105 0.2785022 -0.57177097 0.6277283 -0.27908936 -0.4075307 -0.9500454 0.14090976 0.46287552 0.38946533 -0.17317322 0.41815805 0.057832163 -0.82428396 -0.2912122 0.1444902 -0.6508426 0.32329786 -0.14080693 0.0038157904 0.5690242 -0.2259334 -0.54711217 -0.26230118 -1.0729047 0.002101198 0.556433 0.04884245 0.69928706 0.013678402 0.0033330736 -0.6232669 0.44630164 -0.60770565 0.03208743 -0.094158635 -0.55733114 -0.2558646 0.6031702 -0.48444253 -0.40205282 -0.46616256 -0.40807527 0.5299842 0.40050936 -0.12478251 0.12858938 -0.5487749 0.03016736 -0.7151954 0.6086158 0.43818843 0.28014654 -0.08180783 -0.11683685 0.3058839 0.12838845 0.07017512 0.11325734 0.03232819 0.15338337 -0.039318725 -0.15715188 -0.038895983 -0.6275696 -0.07756396 0.065122105 -0.14038073 -0.29135942 -0.35227966 0.6443411 -0.07291603 -0.014456728 -0.0972162 -0.10393858 -0.31457072 0.60101146 0.5540761 -0.38932702 0.1790692 0.43763992 -0.14633982 -0.99198145 -0.26623663 0.06941167 0.2524 -0.24949674 0.14005144 0.78490895 -0.18599096 -0.2585371 -0.20872077 0.94130456 0.53363585 0.19971599 -0.044225868
cajun 0.13823241 -0.1621778 0.703087 -0.61782914 -0.43517375 1.1174936 -0.17591149 0.32742736 -0.15809627 -0.94235027 -1.0689567 -0.33926314 0.30768198 0.6609514 -0.325712 -0.26309684 -0.19179143 -0.23773175 -0.92103076 0.008951326 -0.2865013 0.5222304 0.31898907 0.44833064 0.170405 -0.33954275 -0.62150544 0.21192022 -0.21837753 -0.16506106 -0.28459495 0.06901719 -0.2898348 -0.5742777 -0.0018948725 -0.33775547 1.1763723 0.19580811 -0.03561834 0.66671354 -0.15614517 -0.022551931 0.37749654 -0.25975123 -0.39752412 -0.6832321 0.37919706 0.1188206 0.29928282 -0.44647095 -0.13165379 -0.43796927 -0.41891333 -0.5410889 0.29437256 0.20356768 0.27276167 0.37111276 -0.12615862 0.080532506 0.6243943 0.031253725 0.14505482 0.8236329 0.3179424 0.17396152 0.5699319 -0.45055038 -0.53628355 -0.07839332 -0.21048024 -0.018741658 0.14682399 -0.044663545 -0.011443083 -0.08824337 0.05053343 0.020229112 0.037652712 0.45145512 0.07593393 0.011550686 -0.24516782 0.08086343 0.38072416 -0.2779766 0.08585251 -0.8675726 -0.5248827 -0.6170749 -0.1417293 0.23784618 0.36643112 0.5837802 -0.045609385 0.020977741 0.5236561 0.14149693 0.20406552 0.269974
giardiniera 0.28356746 0.12236588 0.22957832 -0.83163774 -0.6566228 0.9817879 -0.7845318 0.7568931 0.012242229 -0.8220816 -0.7849958 0.37984622 0.23898377 0.21438336 0.05712561 0.26659787 0.064641334 -0.16692956 -0.23346458 -0.18262088 -0.48412207 -0.056871537 -0.8275726 0.34462783 0.12378029 -1.1049616 -0.18616253 -0.23971215 -1.0755717 -0.15647835 -0.13580365 -0.22486612 -0.016582739 -0.25506678 0.0575941 -0.69238794 -0.06724761 -0.15075356 0.0722087 0.78300786 0.23484729 0.46320435 0.7867272 -0.7715493 -0.6464575 -0.65682554 0.0033901855 0.29966098 1.0846809 -0.32023478 0.3089406 -0.098346666 0.12968813 -1.1264912 -0.44629583 0.026151352 -0.2346026 0.7154181 -0.031204285 -0.03978114 -0.26461557 -0.2448895 0.42350355 0.70419484 0.2542555 0.35263997 0.28173134 -0.06813495 -0.4894802 -0.054595772 0.38021427 -0.40147695 -0.051656563 -0.36322543 0.6018819 0.33558917 0.10336733 -0.07765839 -0.12703495 -0.103121355 0.12441876 -0.18936406 0.22450241 0.121853486 -0.03478209 0.5009336 -0.6739223 -0.2747556 0.29745194 0.06892732 -0.09838385 0.323231 0.053365078 0.497487 1.0183375 0.013130672 0.12628321 -0.064361945 -0.14163472 -0.15303497
veneziana 0.32542956 0.25108555 0.23291156 0.10183326 -0.04324738 0.7781656 -0.6225693 0.5067518 -0.45611387 -0.6511789 -0.47434947 0.83376384 0.3292194 0.38653907 0.16045174 -0.47289708 -0.60600054 -0.2419949 -0.52699053 -0.10705609 -0.46746784 0.15336679 0.6335889 -0.6194458 0.0808027 -0.8174562 -0.66368467 0.28381288 -0.5650221 0.16846201 0.21809757 0.25278324 0.23760624 -0.40845475 -0.40375578 -0.4475501 0.6520522 -0.31987992 -0.4966105 -0.021284554 0.03259008 0.24963513 0.53528756 -0.8803206 -0.1633703 -0.11906929 -0.40748036 -0.04746089 0.12490417 -0.13345669 0.022099448 -0.90481025 0.31834802 -0.5412851 -0.61667645 0.71575505 -0.19566227 -0.15856314 -0.54839647 -0.1103977 -0.3358409 0.20383826 -0.23878331 0.08046833 -0.049042135 0.52275425 0.7962954 -0.75983506 -0.6481688 -0.5573334 -0.4304193 -0.10117622 -0.4722619 0.25776967 0.85537755 0.052585464 -0.094361834 -0.3612192 -0.040127903 0.107637234 0.480171 -0.25596204 -0.057806257 0.11740997 -0.070679575 0.4891889 -0.4755014 -0.29504701 -0.34744626 0.32068413 -0.05695722 0.30488977 0.18635485 0.54529154 0.5607444 0.38223314 0.24737793 -0.23584992 -0.08249614 -0.48151252
vegetable 0.53267264 -0.0052595995 -0.3646211 -0.09028006 -0.2045407 1.3807408 -0.43204698 -0.3062786 0.22930285 -0.20511636 0.021035908 0.74069285 -0.39149842 0.3652597 0.6774689 0.044230677 -0.8720462 -0.12174151 -0.40026107 0.0008068829 -0.12082464 0.5232582 0.16876201 -0.11966412 -0.018320434 -0.36978513 0.40408856 0.014720125 -0.6652384 0.057379078 0.12991616 -0.03897242 0.18963735 -0.7903019 0.07789655 -0.8794112 0.11211293 0.13576926 -0.18043049 0.71232545 -0.032077763 0.036662918 1.0061754 -0.4734343 0.2027762 -0.54941434 -0.31443065 -0.038369417 0.8187349 -0.21198082 0.5160828 -0.8844178 -0.12667096 -0.37157115 -0.6994766 0.29695588 0.19419326 -0.251457 -0.5559992 0.775034 -0.388082 -0.43993607 -0.29010236 0.7971852 -0.23446083 0.68754125 -0.30408406 -0.23772615 -0.13190347 -0.10704652 0.70731515 -0.19157729 -0.3257539 -0.27092698 0.5099553 0.36628583 0.48277843 -0.8301162 -0.39189243 -0.09849754 -0.0863486 -0.6296229 0.20014375 -0.3634749 0.072115 0.7498419 -0.6734947 -0.006137778 0.26479667 0.020326896 -0.017137947 0.42878208 0.60306484 0.6576657 0.66248673 -0.29866406 -0.027655145 -0.22197482 -0.032796975 -0.23819572
some -0.32631704 0.35549143 0.13017079 0.08288717 -0.31071347 0.4154606 0.09897075 0.06090994 0.15423408 -0.105512396 0.6978111 0.6432081 -0.15571018 0.74370325 0.6395012 -0.31228456 -0.5184141 -1.1183863 -0.044616945 0.1883998 0.011621373 -0.40499562 0.21103941 0.44179714 0.32903153 -0.5882695 0.22566746 0.042203218 -0.101039834 0.7724204 0.12681836 -0.6360046 -0.5062716 -0.10808033 -0.23316972 -0.4431179 0.18497084 -0.18457012 -0.15911539 -0.3550755 0.34168556 -0.2798773 1.0742978 -0.15903027 -0.45341155 -0.41611564 0.1797237 0.33796373 0.61931473 -0.4224186 -0.08291471 -0.075727895 -0.44262454 -0.6160191 -0.5135121 -0.38363117 -0.050697315 -0.20682271 -0.05276705 -0.25286067 0.57441527 -0.7188294 -0.63474786 0.3400795 0.6390259 -0.17326185 0.39816633 0.39158118 -0.2608911 0.026352137 -0.019219847 0.14046168 -0.26428276 -0.40263653 0.005953245 -0.13663726 -0.071231715 -0.103542455 0.5817524 -0.31273177 -0.63034695 0.019099116 -0.21547714 -0.08845801 -0.16520205 0.31967658 -1.1371149 -0.7595903 0.19729947 0.11516717 0.035315007 -0.060733005 -0.0373373 -0.1154426 -0.8348179 -0.29913786 0.0062829 0.4029039 -0.25597468 -0.33502284
base -0.17263018 -0.41233757 -0.05879229 0.14082702 0.36797157 0.26727375 -0.19356683 -0.05353536 -0.5265191 -0.029455153 0.08036839 0.3904608 0.31856555 0.07928035 0.1239024 0.4956058 0.32359606 -0.9748022 -0.1077261 -0.36072794 -0.12943782 -0.2516355 0.25091168 0.6444443 0.53449625 -0.2943002 -0.26105663 -0.1446323 -0.41935742 0.022492807 -0.7692668 -0.2389439 -0.3191743 0.094520874 -0.41077587 -0.54287463 0.13042954 -0.6721406 0.16340226 0.73297524 0.26439348 -0.17881337 0.20671631 0.25588408 -0.25679323 -0.25995028 -0.078363195 0.37793007 0.33704546 0.17827155 0.19634718 0.101459906 0.022680745 0.06446944 0.1718797 -0.57020956 -0.40266567 -0.021689825 0.3629536 0.72119504 1.012856 -0.16212091 -0.37054685 0.5973601 0.3071638 0.5427927 0.34680277 -0.5291623 -0.47136524 0.026982889 0.25759152 -0.056302007 0.075397074 0.27328244 0.59822154 -0.16148499 0.1854369 -0.1135875 0.0367802 -0.0744912 0.47972894 -0.2429931 -0.82092416 0.91649824 0.052080486 0.19728473 -0.43536398 -0.26711047 -0.19730097 0.6671543 -0.04327502 0.2704493 0.52690357 -0.74363774 0.53972125 -0.32006454 -0.19013889 0.040033985 -0.17098002 -0.031009322
http://www.co-ode.org/ontologies/pizza/pizza.owl#TomatoTopping -0.36677757 0.47953165 -0.404755 -0.089985035 -0.097532876 0.5223851 -0.30471912 0.22931251 -0.1578614 -0.2455151 -0.6042455 0.54484946 -0.44727355 0.28999135 -0.19636454 0.33544964 -0.09679509 -1.0588211 -0.6046344 0.36768532 0.34720546 0.31164154 0.19284232 0.020410646 0.24139032 -0.36312485 0.12218656 0.38413447 -0.875398 -0.10158531 -0.40357405 -0.11686856 -0.06776312 -0.4286868 0.3237164 -0.2132406 -0.025981255 -0.4061564 0.13597848 -0.18507662 0.72289693 0.18488541 -0.041222893 -0.32331765 -0.8548947 -0.2069453 0.18635401 0.4350142 0.77866066 -0.2115457 0.30927137 -0.09907132 -0.10225401 -0.46669048 -0.42606884 -0.38959423 0.31294242 0.095602065 0.26826522 0.0048910826 -0.45412892 0.08734537 -0.46017563 -0.01001586 0.61926836 -0.26825848 0.20479646 -0.15933712 -0.30711216 0.47919834 -0.25327313 0.47002497 -0.20288582 -0.22465679 -0.18478605 -0.121620916 -0.20599358 -0.58402866 -0.14427602 -0.03270707 -0.11288751 -0.542211 -0.6151971 0.2595978 -0.24214461 0.20639077 -0.46108934 -0.6834508 0.27438885 -0.08183911 0.16568412 0.1714429 -0.33981067 -0.46558943 -0.26348692 -0.52587736 0.21761048 -0.12785178 -0.16935745 -0.096313514
four -0.2528054 0.39544138 -0.28518704 -0.60947883 -0.65678763 0.8024084 -0.16872317 0.49403754 -0.5960048 -0.9160401 0.039393883 0.30952695 -0.0664696 -0.008651252 0.09781428 0.6517594 -0.60469997 -0.13236612 -0.27396303 0.5739465 -0.1595355 0.022727605 0.5967215 -0.74020857 0.14544077 -0.98609704 -0.7905231 -0.35091835 -0.9845921 -0.25631043 0.09556089 -0.7851308 -0.42316186 0.06612859 -0.5506358 -0.94353694 -0.20784186 -0.79682237 0.119614154 0.5397543 0.32788244 0.22981307 0.28412706 -0.0858498 -0.85010725 -0.32249513 -0.34180325 0.66175896 0.45587972 0.14324248 0.3278462 -0.3679262 0.6926263 -0.41938788 -0.14475477 0.16837282 0.43851867 -0.33645254 -0.45789775 0.082475916 -0.34786218 -0.17939991 -0.013976281 0.5449183 0.700331 -0.10805462 0.0838814 -0.64258116 -0.034671813 -0.4958815 0.35902378 0.13793789 0.097690225 -0.59763885 0.8876199 0.21765317 0.27462345 0.1603769 0.3306021 -0.46397832 0.89855874 0.14593379 -0.46950272 -0.06593781 0.5152991 -0.03532998 -0.7446058 0.18773209 0.44126898 0.3188745 -0.14416939 0.23221007 0.77024317 0.21389112 0.1449928 -0.16599962 0.23623255 -0.26640758 -0.4434275 -0.22911377
siciliana 0.33965027 0.22613104 -0.13939448 -0.13520198 -0.18941371 0.7948258 -0.46713293 0.29965457 -0.2185254 -0.54744065 -0.13180692 0.099102736 0.3553557 0.23689047 0.54197973 -0.14518623 -0.74427605 -0.08850888 -0.61283565 -0.17024882 -0.080368504 0.281545 0.76822484 -0.112392776 0.38333073 0.021831168 -0.5618562 0.068157844 -0.52995884 0.1452915 -0.31318247 -0.104096726 0.2871205 -0.46837616 0.065941155 -0.8478355 0.7052239 0.058320165 0.255081 0.11208643 0.51455086 0.07988125 1.2887166 -0.27666718 0.064706445 -0.4205354 -0.20123607 0.15095352 0.5139062 0.22840321 0.26002952 -0.6678866 -0.09697835 -0.43741944 0.07056437 0.14074032 0.17578648 -0.12464927 -0.40277886 0.0014050505 -0.019565416 -0.024336634 -0.16603005 0.113120764 0.021537693 0.36663803 -0.006678447 -0.80739343 -0.8841539 -0.3934831 0.0725367 -0.8429729 -0.17886393 -0.45096913 0.2696607 0.49677134 -0.19924375 -0.45338452 0.19495969 -0.043838337 0.9027117 -0.6959854 -0.19302672 0.57295364 0.15827335 0.105094895 -0.8922538 -0.18025386 -0.09042005 0.18679962 0.4739423 0.12155302 -0.097601466 -0.2782861 0.021254634 0.20678505 0.35413146 -0.4132079 -0.6203057 0.38238645
http://www.co-ode.org/ontologies/pizza/pizza.owl#hasSpiciness -0.65002567 -0.05222656 -0.16810311 0.03986383 -0.055979986 0.5954709 -0.7130267 0.5288458 0.050981097 -0.09107819 -0.007989644 0.72421724 -0.29829735 0.3874904 0.27749944 -0.06036654 -0.14643228 -0.7014012 -0.38281226 0.2183939 0.28137496 -0.22061267 -0.03279775 0.22381145 0.019112524 0.34295535 0.18588413 0.16250113 -0.1772385 0.2605394 0.3314522 -0.76784265 -0.007372759 0.35315004 0.2555788 -0.30990767 -0.06901139 0.009920903 -0.20473696 0.13999353 0.19084263 -0.37097645 0.65566796 -0.1973038 -0.9669871 -0.16306058 0.2304692 0.07253898 0.63372535 0.152378 0.64424044 -0.62779206 -0.4670928 -0.65583557 -0.9201627 -0.1821857 0.2085555 -0.05631864 -0.57998466 0.16506205 -0.2874989 0.14551699 -0.5591321 0.5905904 0.6190959 -0.30968332 0.39112186 0.632873 0.036057137 0.1133834 0.26880908 -0.10397814 -0.59022826 -0.83453697 0.008241996 -0.30120397 0.012878645 -0.08397501 0.24177161 -0.03704354 -0.5869046 -0.02989719 -0.5259881 -0.110814154 0.0048470246 0.094647326 -1.021963 -0.6506713 0.22828814 -0.37191048 -0.11733602 -0.11820337 -0.37235913 0.43258387 0.09408898 -0.358057 0.48637503 -0.08387989 -0.40188086 -0.7485375
capricciosa 0.12967753 0.2880086 0.4279472 -0.12158734 -0.36035246 0.7701371 -0.70608366 0.34086442 -0.15221862 -0.88069165 -0.4218641 0.19906305 0.30980933 0.27413526 0.39863065 -0.37130782 -0.5154012 0.03930687 -0.654809 0.1730906 -0.31821 -0.20120767 0.24539942 0.026466865 0.31628734 -0.6260121 -0.67481285 0.27642226 -0.45840737 -0.38855034 -0.45925906 -0.36744392 0.2132835 -0.3644705 -0.2831684 -0.77883804 0.5987212 -0.035195984 0.30630305 0.31413278 0.1616767 0.15434286 0.86762524 -0.5767669 -0.4820208 -0.23364183 -0.03246669 0.20366526 0.3273661 -0.24015439 0.23761687 -0.4314296 -0.09803227 -0.9941932 0.06326988 0.050856046 0.15723592 0.1671214 -0.52718955 -0.51784664 0.18607678 0.39128903 -0.046810824 0.40146938 0.16419765 0.2608853 0.23514931 -0.76604456 -0.9805441 -0.25383666 0.051612232 -0.8414228 0.010279266 -0.3967251 0.62897396 0.3675168 -0.016830118 -0.2454518 0.45777836 -0.2903659 0.50306034 -0.17306253 -0.23671053 0.29692736 -0.23972861 0.2033236 -0.6137619 -0.2180085 -0.21103247 0.44259387 0.25624683 0.04962182 0.68139035 0.295987 0.557794 0.65695864 0.5135719 -0.19990017 -0.4610204 0.16634439
olivetopping -0.6209751 0.34944117 -0.059321024 -0.24614672 0.06821251 0.30750895 0.043017235 0.42587152 -0.27046812 -0.73074466 -0.55164194 0.58166796 -0.32198063 0.15441976 0.6868211 0.10543887 -0.46804416 -0.47916093 -0.7513914 -0.49822366 0.022736974 0.21382996 0.42909512 -0.15720545 0.36469492 -0.72269887 -0.3437217 0.16923971 -0.46946147 -0.049713228 -0.7061357 -0.3523681 0.10429803 -0.27919504 0.19974194 -0.3811906 0.060258675 0.052319523 -0.09270821 -0.044944186 0.5002936 0.41357592 0.36158514 -0.05096071 -0.5266244 -0.2235899 0.061795373 -0.09786883 1.0300909 -0.0946708 0.566002 -0.3347962 0.15208459 -0.663924 -0.057481922 -0.1256007 0.14445639 -0.33500543 0.3134364 -0.24261712 0.095832884 0.04853063 -0.06092513 -0.074832745 0.24117537 0.19502999 0.27433318 -0.5979611 -0.94872236 -0.020139012 0.08333175 -0.12596929 -0.50579786 0.023875633 0.048318163 0.18322632 -0.033515275 -0.11403291 -0.100759126 -0.38513893 0.1486986 -0.18070203 -0.49982843 0.5677411 0.03130308 0.40522894 -0.62821347 -0.50723094 -0.03534107 0.26500222 0.8520404 0.4121376 0.23791108 -0.17411742 0.42285886 -0.49535507 0.3127337 -0.4522563 -0.055130605 -0.52066636
soho 0.3460433 0.5734701 -0.41012722 -0.10112844 0.027056148 0.87782454 -0.43952772 0.57148194 -0.55145526 -0.78723955 -0.6455786 0.29075462 0.3208373 0.18588269 0.21404247 -0.15917133 -0.6731557 -0.48013234 -0.42682034 -0.32479012 -0.52742124 0.059277803 0.30076796 -0.14817259 0.19975553 -0.2699486 -0.28271392 -0.2955947 -0.60151434 0.077319026 0.07554199 0.0003863656 0.08471542 -0.8301877 0.03702307 -0.49818513 0.6516914 0.003664309 -0.2167056 0.16724685 0.43717134 0.045963287 1.5154908 -0.5130634 -0.04551796 -0.5112869 -0.046287715 0.12856542 0.506023 0.2489969 0.46796948 -0.53581333 0.10018936 -0.03733953 -0.74625486 0.11912281 -0.086697295 -0.2791688 -0.3860686 0.3126788 -0.1861013 -0.510274 0.003546841 0.19245763 -0.18736848 0.39231682 0.07174187 -0.35726285 -0.5443237 -0.6116166 -0.045501012 -0.46918043 -0.06500373 -0.25833535 -0.050656423 -0.026008086 -0.1142601 -0.09850057 -0.4030097 0.15011561 0.69309115 -0.67250806 -0.2762506 0.9703252 0.08628755 0.30247545 -1.0081637 -0.19599672 0.4580637 -0.045882534 0.51238006 0.2010947 -0.17855981 -0.09784568 0.40322036 -0.2536972 0.3291898 -0.17145464 0.05976484 -0.57862955
http://www.co-ode.org/ontologies/pizza/pizza.owl#MozzarellaTopping 0.031786405 0.4683746 -0.5152914 -0.22817792 -0.057647184 0.09284058 0.06190805 0.25984362 -0.20572153 -0.02929253 -0.73004204 0.18066381 -0.33742982 0.25275254 0.07142168 -0.07953598 -0.28040314 -0.7753937 -0.6245454 0.39050564 0.4375395 0.37586248 0.28700456 -0.2661199 0.05235643 -0.087388664 0.22544608 0.1646934 -0.45904285 -0.23117453 0.030228233 -0.056395482 -0.16744295 -0.07315661 0.04738221 -0.3150808 0.026643667 -0.28046164 0.030747434 -0.12203046 0.45513794 -0.003382131 -0.10721415 -0.20917578 -0.80635977 -0.5370063 0.16988316 0.47243038 0.8918521 -0.33388355 0.28850773 -0.43298322 -0.030093556 -0.5120186 -0.60097927 -0.26624742 0.26908544 -0.09241168 0.028031139 -0.10063049 -0.1995598 -0.4239299 -0.57933766 -0.034226984 0.7709087 -0.15040755 0.28346986 -0.21412824 -0.439205 0.50117874 -0.36288625 0.24370687 -0.2707352 0.066958405 0.15337971 -0.2681423 -0.31528223 -0.2964546 0.12004744 -0.3244181 -0.30974275 -0.98121023 -0.7818101 0.47551426 -0.26608124 0.47748518 -0.4005543 -0.6210836 -0.1566965 0.4052056 0.070247374 0.39668238 0.1039633 -0.3976627 -0.18618257 -0.55578655 0.35382742 -0.27557355 0.07750607 -0.23483716
fiorentina 0.36714116 0.42025486 -0.42416477 -0.0023798011 -0.06615689 0.9062053 -0.2813274 0.4065163 -0.62124044 -0.38393238 -0.61413217 0.2112443 0.36962232 0.09411044 0.3001189 0.06076442 -0.6253431 -0.42535686 -0.61889786 -0.52490693 -0.49269286 0.12823607 0.41619605 0.13538627 0.09307449 -0.3744892 -0.32301193 -0.39925328 -0.54616743 -0.04233699 -0.22600108 0.14655304 0.04365809 -0.79680353 0.061779145 -0.65072525 0.734056 -0.06814623 -0.07923021 0.24107614 0.20683396 -0.09129734 1.4179548 -0.575957 -0.0622809 -0.74827296 -0.013119606 -0.0020882708 0.59898233 0.22020958 0.39667413 -0.3998498 0.11308008 -0.105118625 -0.6670569 -0.045409255 -0.18563078 -0.33110496 -0.3364395 0.1398984 -0.076414734 -0.8045993 -0.028150393 0.45695883 -0.3280325 0.56128985 -0.15592043 -0.32161957 -0.58966124 -0.2953017 -0.005338048 -0.49878123 -0.015799226 -0.3704513 -0.07388983 0.20904633 -0.13006648 -0.012353305 -0.15925992 -0.037089076 0.5761171 -0.55973357 -0.33399832 0.8745315 -0.039879933 0.4275253 -0.65046483 0.005024186 0.66964245 0.17194445 0.31157967 0.31405511 0.075958885 -0.14953421 0.37315452 -0.17675008 0.08443008 -0.06405193 -0.11450351 -0.43202934
mushroom -0.44552574 0.17420144 0.38635695 -0.6657986 -0.61770546 0.14936356 -0.116773985 0.80462664 -0.20133223 -0.5976843 -0.69127524 0.31685668 -0.28448078 0.07330004 0.40880132 0.19426224 0.037781715 -0.5225723 -0.45507732 -0.4526737 -0.261105 0.45403585 0.33108664 0.09266903 0.46477014 -0.742475 -0.60507554 -0.0030313018 -0.94273084 -0.098124325 -0.47456387 -0.30061138 -0.017110728 0.23531702 0.14170691 -0.42455888 -0.0036596523 -0.23184706 0.026208196 0.47261688 0.22300941 0.39213312 0.4730559 -0.122114316 -0.3916014 -0.44343036 -0.35008565 0.018529316 1.0439456 -0.16884196 0.5346285 0.3090171 0.33681044 -0.995175 -0.025743525 -0.01887371 0.38471332 -0.17152242 0.51933706 0.23327683 -0.18668893 -0.062356587 0.37940425 0.014011728 0.5955296 0.0026355505 0.2656457 -0.25925365 -0.54155827 -0.43726206 0.23349048 -0.11398663 -0.22004193 -0.3174086 0.7017531 0.3151811 0.2346263 -0.08685887 -0.055710133 -0.07080441 0.53955287 0.23949188 -0.1784719 -0.18275173 0.113006964 -0.14797728 -0.40229347 -0.37757903 0.009226026 0.15583554 0.26360485 0.24089868 0.11442645 -0.09163344 0.37207967 -0.58192384 0.15660593 -0.24324694 -0.63358843 0.07195089
cheese -0.4606016 -0.09990218 -0.58478475 0.16368441 -0.39227316 0.72341573 -0.078955606 -0.110697694 -0.46589127 -0.37895554 -0.24370702 0.6587935 -0.08958674 -0.015705395 0.07014038 -0.21714278 -0.5575504 -1.2081145 -0.33203804 -0.8250409 0.1543787 0.9108269 0.2660853 -0.05529106 0.2911694 -0.43818322 -0.6399308 -0.34887695 -0.30535245 0.19358727 0.24285068 -0.48419514 0.38162675 -0.1531672 -0.023827156 -0.3595006 -0.028617771 0.4160246 -0.43030342 -0.028454656 -0.19103722 -0.09665646 0.6722122 -0.27070397 0.050624564 -0.6692038 -0.4162902 -0.2726211 0.3175928 0.50240207 0.72026163 -0.45078987 0.07076157 0.025128681 -0.37900248 -0.8827504 0.29913065 -0.7832447 -0.4478539 0.5589822 -0.2728432 0.27747998 0.36673486 0.33739558 0.12534347 -0.32943633 0.57899487 0.0023613276 -0.20083739 0.20677784 -0.17833935 -0.12222588 0.16360834 -0.13139775 0.94227403 -0.06730782 0.45314315 -0.14577295 0.7753126 0.14158659 0.6086825 -0.50369227 -0.0106062135 0.17813998 -0.15884793 -0.034303736 -0.062828675 0.19726026 0.6610371 0.28286698 -0.29876515 0.35373622 0.8441867 -0.22234668 0.16138725 -0.7358535 0.18115145 -0.27824208 0.14030881 -0.77588594
named -2.007457e-05 0.370022 -0.009337327 0.27650255 -0.15234631 0.031657115 0.18465701 0.29446247 -0.47661492 -0.03443081 -0.32399184 0.2041424 -0.5220747 0.07061385 -0.3504635 0.38731095 -0.27957878 -1.3740953 0.17303643 0.36781287 0.003934981 0.35410368 0.0032621461 0.59729224 0.4314301 0.0068503013 -0.30912238 0.5853025 -1.037997 -0.43370414 -0.69979185 -0.13572979 -0.5261675 -0.5822517 -0.10051484 -0.052804265 -0.2005354 -0.061522067 -0.19358428 0.7590393 0.2735051 0.40004352 0.4799279 0.10608493 -0.3657063 0.07844518 0.10229329 0.82356566 0.28065386 0.20038614 0.014441175 -0.15111051 0.19922242 -0.31790704 0.41657236 -0.75969607 -0.33246803 -0.38282898 0.60759425 1.0565797 0.39349592 0.41668007 -0.589799 0.13660079 0.7553734 -0.17330205 0.4282947 -0.06812162 -1.2255614 -0.29905024 0.27210876 0.069280125 0.05169185 0.56039417 0.41417098 -0.33066067 -0.34234667 -0.3034572 -0.32208934 -0.5005931 -0.10380899 0.050894734 -0.9807694 0.14476578 0.18654495 0.4065893 -0.8706663 -0.8635508 0.33645305 -0.41611615 0.31369168 0.4732752 -0.165954 -0.37191567 -0.18671978 -0.56535584 -0.5233804 -0.6795239 -0.2663994 -0.03971297
napoletana 0.33240855 0.6845625 -0.00073304714 -0.019698296 -0.16587964 0.6683235 -0.56706077 0.63480586 -0.422027 -0.6929266 -0.4955623 0.5973883 0.069784865 0.2874603 0.30072552 -0.28036013 -0.7042465 -0.32917476 -0.37395293 0.18989651 -0.2399017 0.17814937 0.74430174 -0.5385243 0.4256424 -0.5959035 -0.6087666 -0.101949476 -0.85398185 -0.13250618 -0.3363212 -0.056685388 0.51495135 -0.27945063 -0.37846777 -0.6656423 0.40902966 -0.36890775 -0.14580318 0.087722585 0.48009863 0.00044473787 0.88254887 -0.3118279 -0.5750089 -0.24032754 -0.15128593 0.03510623 0.15126863 -0.055706978 0.074102074 -0.36525017 0.2867045 -0.5270688 -0.5000117 0.14245641 -0.19883387 -0.28099924 -0.2750239 0.039902657 -0.09980293 0.2533836 -0.2351731 0.11089839 -0.10977305 0.25890818 -0.1940077 -0.88941973 -0.7610335 -0.3695981 -0.16554359 -0.21960086 -0.2679445 0.11161337 0.86680716 0.21936227 -0.18868814 -0.11009503 0.2757003 -0.31155777 0.9416722 -0.27718848 -0.420598 0.6857782 0.14283496 0.12634219 -0.73139733 -0.14261343 0.13120107 0.50258696 0.09258174 0.3313253 0.50149757 -0.10463971 0.24909076 0.09627122 0.40595707 -0.21093546 -0.37469876 -0.4707669
country 0.22476824 -0.094129294 0.50964296 0.49863535 0.2505004 -0.051704213 -0.7036829 0.23878734 0.26625687 -0.3712862 -0.65676326 0.66135806 0.54972726 0.5264085 -0.35033903 0.34759095 0.36267596 -0.0925164 -0.14472547 -0.036253538 -0.23577254 0.11420151 0.20623598 -0.3637958 0.37279972 -0.35289827 -0.48887056 0.2693102 -0.7203314 0.09835748 0.2286115 0.16045843 0.034306783 -0.2950064 0.4595387 -0.31532866 -0.2019458 -0.6498165 -0.44153857 0.010233929 -0.179396 -0.2772557 0.56480265 -0.3698623 -0.6802944 -0.5151137 0.27087125 0.11955799 0.9375872 0.026905147 -0.2937035 -0.13485225 0.4042835 0.19470215 -0.34600812 -0.12215996 0.19086263 -0.48600742 0.056287847 0.45753375 0.7435112 0.48201996 -0.42601177 -0.24227293 0.3175265 -0.12871717 0.02455359 -0.5229675 -0.65129787 -0.7170548 -0.032469783 0.077706814 -0.72109115 0.16506584 0.06864563 -0.53090066 0.076188445 0.13102014 -0.15300363 -0.7196649 0.37501612 0.48569214 -0.65421623 0.36013186 0.51098627 -0.02360761 -0.58270866 -0.88555664 0.022900099 0.26567352 0.10266456 0.87084234 0.9143924 -0.1937293 -0.12454221 -0.25024432 0.13996023 -0.54326797 -0.19603613 -0.19102006
SubClassOf -0.2665855 0.19803275 -0.09868447 0.20179108 -0.067679934 0.3635968 -0.48642576 0.13500157 -0.31225064 0.4895637 -0.7127796 0.5258938 -0.15091185 0.7053387 0.6234946 -0.27071664 0.24378748 -0.40589687 -0.4640489 0.4179565 0.27882728 -0.20045288 0.37974167 0.68359965 -0.110372886 -0.4292263 -0.301236 -0.05367169 0.30498254 -0.008294553 -0.23629564 -0.68166643 -0.46099085 0.37683794 0.34313515 -0.17837176 -0.046447534 -0.709601 0.14043923 0.23720385 0.70440495 -0.49288744 0.1352663 -0.50101775 -0.6385863 -0.4101151 0.19696842 -0.06072372 0.67332757 -0.10039357 0.258297 -0.40003997 -0.6009756 -0.62769926 -0.78930944 0.18544732 0.42250738 -0.0036871561 -0.33716312 -0.45486373 0.022794206 -0.32765326 -0.20778652 -0.015777195 1.059102 0.040831216 0.29782122 0.06939775 0.41358632 0.08571236 0.06838289 0.093639 -0.8482119 -0.5116317 -0.16862704 0.19253366 -0.059725557 0.15266375 0.26506636 0.13373971 0.011387631 -0.19195963 -0.5103491 0.2260728 -0.42245117 0.12335067 -0.1289089 -0.2906149 0.1290443 0.112588234 0.29450658 0.11077847 -0.16322647 -0.082874514 -0.41915572 -0.6130205 0.7068138 0.05009368 -0.10462996 0.058075074
seasons 0.40117815 0.44600198 0.28841618 -0.1541941 -0.5873433 0.7120763 -0.8113939 0.6880353 0.1577128 -0.5854114 0.010879093 0.4960608 -0.13208117 0.17616495 0.63512087 -0.06574043 -0.53735036 -0.3794279 0.043647915 -0.099024214 -0.2418473 0.27790415 0.29105672 -0.16476437 0.24562241 -0.9671829 -0.7054865 0.11627541 -1.2240953 0.17471483 -0.17152157 -0.19450401 0.666347 0.06289414 -0.17803238 -0.9720396 0.66851324 -0.32887495 -0.10686818 0.099808246 0.1365072 0.1594833 1.2609665 -0.13160442 -0.9128336 -0.18328838 -0.5226698 0.32535857 0.6894143 -0.09989596 0.06968789 -0.5470326 0.39076024 -1.224578 -0.11401733 0.14133574 -0.06870242 -0.20047437 0.16980587 0.4047663 -0.013971179 0.008060523 0.26550162 -0.13896154 0.69545925 -0.2710114 -0.089536935 -0.5697824 -0.9742476 -0.15014859 0.53181493 -0.4397558 0.11430622 -0.21757632 0.95914257 0.16007604 0.3631006 -0.49631843 0.40402064 -0.1805438 0.9229013 0.31095773 -0.5685428 0.08866972 -0.1533072 0.18265004 -0.44311836 0.17287126 0.52883035 0.762047 0.31567037 0.41131788 0.9824473 0.015412029 0.44863954 -0.17062937 0.5909593 0.15433693 -0.29447207 -0.26369607
pollo -0.07048538 -0.27389172 0.5329622 0.24054042 -0.0038846866 0.8613141 -0.40319368 0.996785 0.124218866 -0.88005406 -0.26445714 -0.42691588 0.6797605 0.8861017 -0.025752585 0.54979646 -0.6442465 -0.60005116 -0.08959262 0.15778391 -0.15222572 0.21575855 0.5295043 0.24608834 0.685481 -0.8294515 -0.53674805 -0.4232575 -0.5655306 -0.38903457 -0.16489136 0.28562728 -0.23281801 -0.7465057 -0.421941 -0.54172313 0.8913767 -0.29058105 0.524072 -0.12971912 -0.28407803 -0.5806725 0.80718315 -0.12238276 0.1765524 -1.0324923 0.09348325 0.5042655 0.3883042 0.31737828 -0.032427717 -0.8401704 0.54637533 0.0033343784 -0.51012015 0.66257846 0.2264435 0.0005042215 -0.77433807 0.52784723 0.7273978 -0.165663 -0.02845109 0.400133 0.77257824 0.36198273 0.24714108 -0.59871286 -0.7832637 0.22107512 0.56358653 -0.268725 -0.36152247 0.030891381 0.027690167 -0.07237305 -0.1991817 -0.832015 0.24133694 -0.20973732 0.7177016 0.12896745 -0.88488734 0.4829003 0.20165023 0.029046737 -0.22491297 -0.2312907 -0.12783176 -0.28532425 0.5640678 0.40634504 -0.30810288 0.38372645 0.1316639 -0.53886765 0.48198983 0.09868457 0.30194142 0.19123921
ad 0.09368854 0.042812966 0.0275296 0.0071572326 -0.5519407 0.9028501 -0.27322343 0.87018585 -0.2160951 -0.9660515 -0.42207986 0.17174263 0.9475562 0.39824313 -0.12999226 0.081962004 -0.51616555 -0.65874285 -0.06418202 -0.2984239 0.066552505 0.21946605 0.7365387 0.14918892 0.09455216 -0.55121547 -0.56885314 -0.10165844 -0.5148118 0.16179453 -0.42877847 -0.14746836 0.15212823 -1.0529093 0.02726519 -0.70772535 0.6250958 -0.3637456 -0.109270655 0.477005 -0.19604954 -0.6591992 0.96894765 -0.24519657 0.07363868 -0.5084577 -0.2598063 0.6417027 0.3742219 -0.058719352 -0.3014381 -0.6979901 -0.10883324 -0.056181405 0.037949037 0.80466604 0.51400983 -0.3385811 -0.9451076 0.813913 0.32594275 -0.6676831 -0.17507023 0.8966278 0.584255 0.054078028 0.7429271 -0.57746243 -0.66384155 -0.31599966 0.50186235 -0.35288015 0.21537082 -0.31539664 -0.09914804 -0.21585374 -0.37274048 -0.837295 -0.44869456 -0.12784743 1.0887622 0.30589184 -0.29936707 0.8354287 0.34045586 0.29244775 0.10930197 -0.6351238 0.2079578 -0.491271 0.6335581 0.8118372 0.060827553 -0.24077721 0.022471022 -0.23235014 0.93657583 0.6292584 0.25688332 0.57216984
astra 0.18271741 -0.21758814 0.42235193 0.23037651 -0.11398171 0.7980997 -0.28214556 0.93054336 -0.2638313 -1.1062772 -0.5235438 -0.38658687 0.72799927 0.70721513 0.29760024 -0.3116732 -0.1311713 -0.36985072 -0.87654394 -0.12056166 -0.39508456 0.7088507 1.0738878 0.3493244 0.4613794 -0.637865 -0.58848095 0.0995753 -1.0681349 -0.086143404 -0.39131132 0.14583497 0.034067284 -1.1177808 -0.32873937 -0.23114799 0.8056199 0.027430043 0.7112083 0.35749707 -0.44467008 -0.12558888 1.3420453 0.06269271 0.09364211 -1.0388592 -0.20896442 0.8225719 0.88394755 -0.015618442 -0.3882853 -0.8751788 0.09170859 0.0359714 -0.27913973 0.45970178 0.0330354 -0.34299266 -0.87177974 0.15655573 0.8432117 -0.68686706 0.15699276 0.6872091 0.80444944 0.64993674 0.46673292 -0.1463025 -0.35510308 -0.010949085 0.16286999 -0.3377918 -0.29660493 -0.2833209 0.36602965 -0.39408174 -0.43587872 -0.27900708 -0.29094684 -0.32521957 1.1412436 0.11599031 -0.19995749 0.72401506 0.4333168 0.330462 -0.6544644 -0.0007451651 -0.19692723 -0.49714187 0.6956711 0.9717747 -0.03935541 0.26647118 0.45105863 -0.1771554 0.5175592 0.68793267 0.022798596 0.7700374
mild -0.31372988 0.2771196 -0.10430885 0.065390125 -0.12457817 1.1972529 -0.50630975 0.6191395 0.33095965 -0.91312206 0.28613526 0.78797656 0.6617626 -0.066738285 0.45195758 0.33094516 -0.20298061 -0.4264957 0.3353421 -0.13927335 0.07888525 0.507324 0.26884136 0.34169266 0.39303663 -0.68797785 0.015775414 0.47052616 -0.40266287 0.021510657 0.5546077 -0.74308205 0.16843799 -0.33378506 0.41509843 -0.846584 0.053491708 -0.048286647 -0.10502129 -0.14502512 -0.14945364 0.11654996 1.0233921 -0.42266828 0.049546912 -0.23034158 0.07250789 -0.2335251 0.5827128 0.61392164 0.34961343 -0.378759 -0.58694214 -0.53059816 -0.34834376 -0.38461572 -0.34069294 -0.2526987 -0.62261546 0.0800402 -0.1084018 -0.23423105 0.13981262 0.8275598 0.32503295 -0.60720295 0.059640218 -0.38047388 0.116275154 -0.09233964 0.2141466 -0.018423725 -0.43745705 -0.95057535 0.058708236 0.2810887 0.016591253 -0.369758 -0.12875807 0.39262187 0.06992169 0.07619612 -0.013058629 0.082713984 -0.5748491 0.095325686 -0.60973865 0.39930293 0.79653776 0.34344503 -0.3268805 0.2951379 0.037185464 0.1766194 0.87884516 -0.79396003 0.33847234 -0.058226984 -0.055794407 0.27263495
carlo 0.42634723 0.32592475 -0.121712916 -0.25660408 -0.7157543 0.5271293 -0.23521428 0.65168476 -0.42458954 -0.17012654 -1.3442765 0.23016141 0.5630911 0.6359303 -0.17834115 -0.17236602 -0.18162994 -1.2239501 -0.38557625 -0.47137576 -0.15483628 0.60574234 -0.50640476 0.077321395 -0.07089515 -0.601485 0.06647614 -0.7069931 -1.0611204 0.11053729 0.5144359 -0.34839877 -0.038000125 -0.3107437 -0.1017468 0.0038287556 0.26583418 -0.8929456 -0.22767444 0.596131 -0.19284022 0.00282345 1.5345348 -0.42245516 -0.49640757 -0.83570796 -0.18400472 0.21949765 0.66495025 -0.29834014 0.2093815 -0.22639559 0.25654206 -0.27711713 -0.60593873 -0.5320712 -0.034320705 0.15069324 -0.27377856 0.84389377 0.4464571 -0.76300967 0.763739 0.24899292 0.17651741 0.47585565 -0.2605465 -0.21569924 -0.18419825 -0.2287149 0.003864891 -0.30964825 0.51885885 -0.5339928 0.054193325 0.11743131 -0.031375 0.24215922 -0.3132832 -0.10595591 0.91095793 -0.6648005 -0.39935303 0.36389032 -0.1684199 -0.020090714 -0.65454304 -0.0845983 0.48759976 -0.14913993 -0.38864043 0.5368811 0.06345582 -0.19384795 0.61933494 -0.90324455 0.64138585 0.038188353 0.837635 -0.5251292
vegetabletopping 0.3502944 0.058028046 -0.08337605 -0.005311959 -0.010731528 1.4383183 -0.624055 -0.21378307 0.1604376 -0.2973315 0.32848457 0.88484216 -0.015163284 0.38157603 0.8847444 0.19620852 -0.67248183 -0.34738585 -0.044167507 0.055606302 -0.30398524 0.58968806 0.33525705 0.22398433 0.16676828 -0.5614409 0.09282562 0.06094462 -0.62138754 0.10935674 -0.060126543 -0.117261514 -0.19181928 -0.618578 0.026697902 -0.9370984 0.18089183 0.13945994 -0.360873 0.8924114 -0.14590369 0.08871643 0.9485898 -0.2797574 0.21060276 -0.32912707 -0.36193135 0.11480811 0.8888323 0.100031815 0.46370173 -0.6880367 -0.25263348 -0.30970427 -0.52720684 0.2715955 0.049558595 -0.29311034 -0.43728185 0.60381675 0.051229913 -0.35248056 -0.3389975 0.8123571 -0.130096 0.8043157 -0.23367797 -0.21115752 0.0062474506 -0.43072155 0.871991 -0.35105902 -0.30892366 -0.118176565 0.42568377 0.30837125 0.6144591 -0.7665443 -0.50416744 -0.036794327 0.27651647 -0.36612952 0.08556609 -0.27283582 0.0517116 0.6719555 -0.63441414 0.22271445 0.33599138 0.15611358 0.12786731 0.66528606 0.62824625 0.51619375 0.8971465 -0.6331319 -0.1885145 -0.20224188 0.0024012239 -0.17375039
prince 0.046721116 0.65239614 -0.70168954 -0.30098963 -0.27933234 0.37064728 -0.479287 0.55044377 -0.36367342 -0.73341197 -1.0599992 0.10978896 0.60194284 0.2940195 -0.20576376 0.15641046 0.14898618 -1.1531477 -0.3364462 -0.8808026 -0.7592394 -0.32296973 -0.17599289 0.60518676 -0.21730259 -0.22586684 -0.24797869 -0.555795 -0.72571474 -0.6257653 0.037852112 0.031106403 0.18681282 -0.63573396 0.21151495 -0.19038515 0.22436331 -0.43832558 -0.6594079 0.568035 0.07467552 -0.112151794 1.3260955 -0.36969206 -0.3076554 -1.0335592 0.18721056 0.56696737 0.9856332 0.27656534 0.63433623 -0.20888707 -0.28383595 -0.67702454 -0.68390274 -0.29381874 0.37165412 0.23728555 -0.32235384 0.68672216 -0.11731458 -0.7401675 0.460253 0.33293957 0.42604566 0.34551808 -0.13534229 0.0063909045 -0.09778429 -0.05661428 -0.3824886 -0.15859637 0.59651655 -0.11056799 0.46915245 0.0032141805 0.15261103 -0.07705365 0.25701982 -0.45216057 0.18160681 -0.19926669 -0.3237076 0.26475212 -0.015086945 0.13513774 -0.26421514 -0.5179422 0.40499797 -0.15023983 -0.5241102 0.33598906 0.63271886 -0.3076329 0.3230663 -0.8640219 0.0010093319 0.40075535 0.41240898 -0.05131487
or -0.9000509 -0.22539504 0.054565005 -0.010702595 -0.43781593 0.8127792 -0.28613597 -0.16945532 0.2786889 0.08510324 0.16859809 0.66604996 0.42571825 0.5539273 0.62370706 0.2954818 -0.29906756 -0.43863428 -0.6925744 0.082386434 0.2045967 -0.23484327 -0.048596516 0.21837035 -0.061636224 -0.9622616 -0.19250971 -0.51898474 -0.1304743 0.22107431 0.66354233 -0.8464304 0.0017045006 0.09574634 0.033768866 -0.13417092 0.4369182 0.082408115 -0.55643964 -0.56769454 0.06728556 0.2915999 0.71090496 -0.17383736 -0.9694557 -0.781707 0.10868804 -0.2940572 0.8629193 -0.4240313 0.31124252 -0.72846055 -0.7197975 -0.40571845 -0.42786303 0.100211166 0.2344419 0.21155865 -0.58314484 -0.11718706 0.36308172 -0.6913513 -0.96216816 -0.026507344 0.4015665 0.113836855 0.19080189 0.20730321 -0.25304258 0.019965319 0.13948865 -0.5502035 -0.5559187 -0.56572527 0.0023511471 0.0740013 0.07691078 -0.4123271 0.48649025 -0.51288253 -0.041757938 0.15026186 0.23741148 0.82894313 0.34287858 0.12730172 -0.45509306 -0.3233584 0.2084873 -0.018000223 0.20505548 -0.02847663 0.033075456 0.93347985 -0.7235132 -0.91496515 0.78721297 0.28003117 -0.29486158 -0.14189251
onion -1.0094317 -0.08078318 0.1378834 0.27357176 0.0094738025 0.13924883 -0.23332821 0.89549756 -0.7196156 -0.60190135 -0.11523658 0.5471022 0.21353875 0.6828931 0.07010611 0.1740256 -0.35253748 -0.8428463 -0.92264396 -0.08669458 0.27191672 0.30509186 0.61542696 -0.40129042 0.46239156 -0.58428663 -0.40238082 0.2914464 -0.43827036 -0.13467294 -0.5873485 -0.22932422 -0.056477144 -0.7424749 -0.049185902 0.23463847 0.33421263 -0.24512815 0.025476515 0.4045499 0.13213706 0.5755641 0.083647326 -0.46434158 0.22366875 -0.20667833 -0.065862834 0.16254246 0.61422116 -0.46149784 -0.020446157 -0.68624896 -0.010138948 -0.0675355 -0.15415378 0.42775336 0.3704676 0.16843113 -0.46237212 0.2781713 0.21456687 0.14572151 -0.23804854 0.55464 0.3204042 0.5498646 0.8142828 -0.26621136 -0.69852555 0.1888093 -0.0983097 0.11434435 -0.2036414 -0.06466006 -0.07000178 -0.639671 -0.19217399 -0.9505386 -0.08046457 -0.094536014 0.15740256 0.045456864 -0.07566883 0.08217474 -0.30128786 0.645532 -0.14980504 -0.6444467 -0.43904236 -0.43893507 0.5725665 0.73376405 -0.27695805 0.07422536 0.44618315 -0.29360873 0.13500778 0.29959345 0.55144656 0.25408557
caprina 0.38881573 -0.07085807 -0.24901457 -0.087814644 -0.20415418 0.092728026 -0.61004394 0.4435413 0.024201352 -0.5156146 -0.7466155 0.35963887 0.46610558 -0.019117491 -0.14639638 -0.0535071 -0.14634891 -1.0906236 -0.47365165 -0.19067574 -0.23644456 0.85783595 0.18845922 -0.09059567 0.5320559 -1.0002612 -0.7958128 -0.580933 -0.97239524 0.48458225 0.30873653 -0.427619 0.44077662 -0.22448736 -0.03828982 -0.2506013 0.15534608 -0.24892552 0.0637217 -0.1870325 0.110533826 -0.35978502 0.34586436 -0.7607594 0.06774633 -1.0638033 -0.1634336 0.4225337 0.51256615 0.2912164 0.7051418 -0.063133284 0.19777387 -0.37673384 -0.2670145 0.045082938 -0.030753398 -0.039242804 -0.050830238 0.43921182 -0.5435583 0.33069968 0.111354284 0.26355323 0.20747723 -0.3907225 0.92282474 0.08234547 -0.48255765 -0.09452485 -0.5749572 0.01891662 -0.23743735 -0.37704527 0.9934422 -0.11224112 0.06556533 -0.6744118 0.3740655 0.47417164 0.569373 -0.35714093 0.33833852 0.50668436 0.05469523 -0.5109079 0.005180821 -0.14216962 0.81949073 0.19645827 -0.30858707 0.10698525 -0.027210578 -0.04861376 0.11192954 -0.1088478 0.33875275 -0.114062004 -0.22415212 -0.6861782
origin -0.1990976 0.070710056 0.43498862 0.0574169 -0.005103862 0.1760172 -0.8101945 0.2505253 -0.24458325 -0.9369249 -0.52471524 0.6270817 0.44538975 0.47701278 0.26622167 0.3426674 0.12142348 -0.7788207 0.25770968 0.004611045 -0.66580904 -0.238282 -0.32335457 0.1127915 0.32997066 -0.30724648 -0.53424346 0.24142845 -0.30921385 -0.041970007 0.16361956 0.13850364 -0.18645872 0.024652649 -0.21466528 -0.93985814 0.37019905 -0.6677794 -0.18674256 -0.152139 0.11741651 -0.25024652 0.4989121 -0.010039802 -0.6382524 -0.46321654 -0.17275484 0.58013934 0.7561018 0.24923247 0.33433956 -0.17298773 0.057240445 0.19442429 -0.19703093 0.017291559 0.07678092 -0.17782298 0.20112914 0.16471629 0.6078783 0.2558985 -0.34246042 -0.38384786 0.16400495 0.12849379 0.06529162 -0.40637589 -0.6106282 0.1187916 0.08582407 0.29635987 -0.6811386 -0.030648122 0.28211513 -0.8251751 -0.09273062 -0.46272555 0.21113338 -0.6988072 0.609803 0.25336862 -0.42811567 0.75233555 0.5213532 0.42978546 -0.6345685 -1.0091578 0.18307029 0.24145906 0.47817245 1.0109702 0.18598641 0.13986403 -0.30651733 -0.1046716 0.27649504 -0.16518992 0.37360483 -0.8267759
fourseasons 0.45067966 0.43354777 0.04442915 -0.3207741 -0.57699454 0.75397205 -0.70262074 0.6694211 -0.23846789 -0.5311067 -0.31120518 0.49720156 -0.19025925 0.20928831 0.21125524 0.05590778 -0.50628126 -0.2688571 -0.35159522 0.33362177 -0.0463342 0.037281726 0.40199578 -0.47893855 0.15867202 -0.69335645 -0.54863006 0.12246142 -1.1477298 -0.05696329 0.067927346 -0.19255099 0.5193676 0.061161738 -0.14612196 -1.0665646 0.20101325 -0.2770606 0.061005063 0.08854976 0.20254597 0.1179734 0.7561446 -0.32833767 -0.7725611 -0.16431424 -0.548905 0.22125919 0.39682093 -0.14534119 0.20283587 -0.19028696 0.4474654 -1.0522816 -0.09517773 0.27225068 0.21002793 -0.12745483 -0.04472372 -0.030944038 -0.4248801 -0.10829558 0.042408224 0.03376001 0.29464933 -0.08529576 -0.06374676 -0.5743183 -0.51254505 -0.20805503 0.29741892 -0.19706811 -0.06589677 -0.54794997 0.9463612 0.2668632 0.25912812 -0.14499581 0.28817376 -0.18753842 0.5374953 0.054988287 -0.5162078 -0.07631115 0.029945515 0.15266241 -0.7400322 -0.08800657 -0.0062211133 0.84907675 0.10707463 0.027091233 0.58215207 -0.02543104 0.14577053 0.054684713 0.49469253 0.017916474 -0.3290229 -0.19944468
http://www.co-ode.org/ontologies/pizza/pizza.owl#NamedPizza 0.21804677 0.494993 -0.23094775 -0.04148636 -0.07507496 0.2378896 0.023813201 0.31816563 -0.47435662 0.0071575507 -0.40343082 0.25700882 -0.8399485 0.26083604 -0.46149752 0.19929364 -0.18618205 -1.2989033 -0.14748895 0.3457081 0.20659743 0.13990346 0.05134114 0.26675797 0.39526236 0.6015597 0.33218452 0.7182796 -0.8798843 -0.3917969 -0.41215876 -0.097764336 -0.3740818 -0.39028606 0.0037880626 -0.384313 -0.12068594 -0.4429537 0.04036101 0.34853956 0.6103943 -0.20791197 0.58115673 0.06090475 -0.5027212 -0.09896155 0.09121826 0.8055402 0.3010042 -0.21575558 0.32021442 -0.18253224 0.07377753 -0.27725843 -0.18692915 -0.72041136 -0.1311382 -0.47460696 0.63574094 0.65674776 0.1419055 0.39956048 -0.6593542 0.07029136 0.61972 -0.27929854 0.20403531 0.07409323 -0.9018568 0.00775283 0.0947334 0.35611334 0.10582089 0.2511196 0.319427 -0.3602877 -0.416293 -0.17392471 -0.36573464 -0.32751065 -0.15105316 -0.6612754 -1.2503895 0.008582657 -0.12060902 0.45863158 -0.9387988 -1.0834541 -0.15514275 -0.25241855 0.12492745 0.609043 -0.2776126 -0.6801678 -0.30964622 -0.35639593 -0.43889835 -0.31479567 -0.47774667 -0.2103863
ham -0.09857945 -0.6604476 -0.027023558 -0.12977456 0.22888988 -0.23243314 0.25739032 -0.07026806 0.3297015 -0.61869866 -0.29724342 0.23352139 -0.07885244 0.30774203 0.6652293 0.27292475 -0.1243299 -0.2661801 -0.7364606 -0.50750375 0.34954998 0.16720432 0.2596872 0.33326685 0.208587 0.14226188 -0.32795215 0.57471657 -0.87121224 0.40904358 -0.15398654 -0.3742472 0.3587756 -0.5039361 0.04164832 -0.6556167 -0.068949945 -0.4310779 0.26830205 0.24745964 0.24566463 0.34600568 0.7328101 -0.027626436 -0.27867597 -0.47282153 -0.09775569 0.4031566 1.0203055 0.30942816 1.0544277 -0.72373086 -0.4016901 -0.6748674 0.41637978 -0.43243602 0.38122445 -0.17344964 -0.18413588 -0.3007312 0.1490858 0.5435395 -0.0872261 -0.09629384 0.67424375 0.16675127 0.30168605 -0.47415042 -0.7496471 0.17037217 0.057351366 -0.22098537 0.13414282 -0.5770337 0.06185755 0.3568069 -0.08219487 -0.48465654 -0.16249824 -0.25332695 -0.32958043 -0.5794215 -0.46955478 0.27311066 0.022746727 0.47042778 -0.70652074 -0.30671126 -0.45820853 0.03164061 0.7449301 0.20276381 0.046035852 -0.28077537 0.5908287 -0.22589713 0.46194318 -0.8329351 0.038102783 -0.20737545
http://www.w3.org/2004/02/skos/core#altLabel -0.011320522 0.47613618 -0.510238 0.033034515 -0.18797778 0.26395288 -0.6124927 0.123658836 -0.4224987 0.2790856 -0.72091216 0.44366375 -0.7708613 0.29827955 -0.0966978 0.09306155 -0.47508264 -0.53540677 -0.03690065 0.11828221 -0.051526032 0.26875207 -0.04687573 0.5473436 0.062359817 -0.17937626 0.045746043 0.47138706 -0.27131128 -0.22490788 -0.20698273 -0.2894245 -0.6451302 -0.25068682 0.2589603 -0.6876699 0.17546345 -0.2842523 -0.1927789 0.023727974 0.5659057 -0.11408295 0.4609818 -0.15869984 -0.69940954 -0.58935076 0.18693903 0.59905064 0.19168496 -0.41007042 0.302154 -0.2617944 -0.11302694 -0.3058372 -0.14142531 -0.3023031 0.45498306 -0.37922522 0.058572248 -0.017324714 -0.08985199 0.18450299 -0.5919918 -0.4997795 0.78041756 -0.26479465 0.38291797 -0.18763107 -0.117017426 -0.4730036 0.122423045 0.04661438 -0.10999923 -0.11433366 0.178426 -0.097311944 -0.0350786 -0.47386947 -0.21373008 -0.21077524 0.108559206 -0.48876297 -0.7698718 -0.09058288 0.057647113 0.85218793 0.18262573 -0.63228005 -0.12102004 -0.36836505 0.15825532 0.31394532 -0.30651292 -0.16356145 -0.45357633 -0.24558459 0.21270254 0.22398306 -0.5611904 0.1300749
olive -0.5615565 0.36602828 0.057700064 -0.34666425 0.23426002 0.28630975 0.1938377 0.39231488 -0.23747385 -0.96608275 -0.3267785 0.4535439 -0.17680006 0.031192187 0.6562861 0.17741787 -0.32606813 -0.6972622 -0.5832806 -0.5079129 -0.42665747 0.24345796 0.37296927 -0.09751606 0.66607565 -0.90952426 -0.45920423 0.5625929 -0.5649669 -0.059439305 -0.8026121 -0.26884648 -0.06447209 -0.35298914 0.03970091 -0.49819556 0.20411439 -0.25413436 -0.10102293 0.08071043 0.57722133 0.46227247 0.5213028 -0.031420946 -0.3435619 0.033737585 0.023403851 0.20781396 1.2019658 -0.022291528 0.34192806 -0.25396532 0.3000939 -0.57924354 -0.037671965 -0.014081581 0.067275174 -0.48042595 0.51563567 0.011207253 0.43306747 0.19115743 0.09944685 0.05480465 0.32906508 0.10756857 0.18652534 -0.48317212 -1.0376585 -0.19880794 0.19514666 -0.03478357 -0.4918957 0.3621663 -0.0060715927 -0.06996718 0.056467287 -0.116592444 -0.25119358 -0.34907067 0.4539465 -0.14504403 -0.57023835 0.49464154 -0.047972295 0.5563042 -0.5153033 -0.56534714 0.14326876 0.17389143 0.7904905 0.79453796 0.64721817 -0.4346713 0.51834476 -0.43167415 0.1652407 -0.52315694 -0.47254375 -0.46866012
parmese 0.24891084 0.32797718 -0.028191669 -0.12180501 -0.049790174 0.024775868 -0.31269825 -0.15574826 -0.23301208 -0.38315606 -0.5052497 0.20137212 1.0059831 0.24261375 0.23133712 -0.21183199 -0.13347758 -0.72696257 -0.5875243 -0.91299593 -0.8656163 0.27012533 -0.030157745 0.5721658 0.38004205 -0.30467898 -0.31303075 -0.16120921 -0.6004726 0.19891997 0.36038613 -0.34548682 -0.16716428 -0.39683577 0.19789085 -0.5018552 0.555608 -0.74210876 -0.27130395 0.16159736 -0.19798107 0.06354619 1.5246818 -0.80481225 0.24953015 -0.7214004 -0.37217548 0.4056433 0.95943224 0.075196736 0.78044707 -0.3307108 -0.18202002 -0.6507449 0.09222979 -0.14212264 0.12183652 -0.09312002 -0.17250682 0.09037394 0.28620684 0.15502276 0.14581223 -0.022359649 0.13597204 0.5464219 0.18602327 -0.29843685 -0.66974616 -0.5839732 -0.18162541 -0.96803534 0.4479972 -0.5346908 0.12625584 0.4133036 0.32052565 -0.38703737 -0.024992611 0.024089161 0.5371959 -0.8122751 -0.14885119 0.28162572 -0.2592408 0.17570443 -0.72711945 -0.09471757 0.31610376 -0.06093753 0.18312465 0.34780723 0.20876725 -0.0953641 0.4223418 -0.23698296 0.3595032 -0.40260085 0.030714795 -0.20840074
polloadastra 0.15877144 -0.15169431 0.12193931 -0.023769522 -0.2568499 0.9431244 -0.46878898 0.9739744 -0.25028607 -0.61008763 -0.46934056 -0.26212904 0.6649385 0.7639165 -0.012326238 -0.051160205 -0.35803634 -0.3878497 -0.5389061 -0.013137727 0.24152745 0.23396154 0.7619344 0.123333685 0.21638562 -0.26696768 -0.36388496 -0.12500294 -0.5571306 -0.20439015 -0.066033274 0.014679905 0.31166017 -0.7184729 -0.17924277 -0.44573197 0.69548863 -0.09675063 0.5618268 -0.039576184 -0.30362648 -0.51432 1.0580958 -0.30231303 0.12970479 -0.8220082 -0.34888253 0.28888765 0.2867543 0.12083409 -0.19691703 -0.6236663 0.002166365 -0.09480643 -0.5544297 0.5068157 0.37935382 0.047787044 -0.9217497 0.21892925 0.024689201 -0.6720742 0.15793468 0.65090084 0.37573838 0.24497254 0.3433704 -0.159228 -0.26353705 0.15670775 0.23935167 -0.25724763 -0.014610346 -0.50993305 0.14312997 -0.06868463 -0.34549075 -0.41519082 0.05122791 -0.066265956 0.83952564 -0.08586633 -0.33928385 0.43610084 0.04258122 0.16852659 -0.12298559 -0.27419207 -0.4031442 -0.2166995 0.40239498 0.32217076 -0.25440705 -0.022706311 0.075520806 -0.18649256 0.5592041 0.82357675 0.3139949 0.65586084
giuseppe 0.4525426 -0.3734411 0.37689608 0.45257765 -0.31065318 0.2872123 -0.6632461 0.680369 -0.6836565 -0.5143421 -0.35231355 0.7044634 0.528697 0.6704116 -0.13127132 -0.03467525 0.21212573 -1.0060802 -0.3369548 -0.27168363 -0.6763406 0.36698717 0.5518527 -0.015601233 0.40230018 -0.6097021 -0.30301136 -0.30525768 -0.9703494 0.22757278 0.18082784 -0.14991885 -0.14069802 -0.3294122 -0.38821524 -0.36228228 0.99469 -0.9549034 -0.6807856 0.4459806 -0.6437842 0.123153955 0.84740454 -0.8902551 -0.06950396 -0.50090355 -0.5752053 0.6211702 0.68207383 -0.6045985 0.14494227 -0.8007992 0.24288338 -1.215716 0.587108 0.9376886 0.6358373 0.24172491 -0.22573851 0.5766023 0.66042376 -0.09310746 -0.20808499 0.559586 0.6517923 0.83412313 0.30695456 -0.22524126 -0.46808708 -0.629095 -0.15684535 0.07710323 0.3012602 -0.55415 0.38199168 -0.25857124 0.31167188 -1.1496253 0.037061203 0.12655956 0.43167368 -0.11817969 0.0708372 -0.5548467 -0.107641496 -0.206543 -0.2676914 -0.43085563 -0.041243974 0.027102733 -0.31478554 0.53082246 -0.00026266495 0.3271741 0.23017804 0.12080315 0.2182161 0.14472888 0.6219349 0.30502415
sloppy -0.18685815 0.089747064 0.70799965 0.155111 -0.30496395 -0.3607327 -0.8634314 0.09393029 -0.47783914 -0.3762423 -0.46075118 0.69859385 0.478758 0.9658234 -0.47629595 0.47094667 -0.19478181 -1.334147 -0.9697287 0.18079457 -0.80727595 0.12105787 0.18761024 0.45838565 0.17432404 -0.8160112 -0.3754211 -0.090312086 -0.8016261 0.6881398 -0.19454646 0.3619108 -0.130391 -0.11435381 -0.1874456 -0.7226877 0.5807612 -0.6069997 -0.11085781 0.54536444 -0.14880665 -0.1697011 0.8459959 -0.7200453 0.19499812 -0.52036995 -0.1565314 0.43488306 0.5214601 -0.17354165 0.32182527 -0.888644 0.3289379 -0.54636353 0.18539834 0.6778004 -0.037966188 0.44623655 -0.36655223 0.24969596 0.3027472 -0.16699538 -0.052504625 0.4414426 -0.08035932 0.4121558 0.7645797 -0.15192834 -0.73503023 0.02460177 -0.22077477 0.2887367 -0.07893379 -0.2380856 0.5289335 0.03359192 0.46203515 -0.6566463 0.19588724 0.084225684 0.3737542 0.3123838 0.13538791 -0.6806393 0.6041422 0.5101609 -0.4980326 0.093947135 0.021940777 -0.2845199 -0.099132836 0.9642281 0.24947928 0.23767668 0.418737 0.07009092 0.30006027 0.24338466 0.22480825 0.29928306
la 0.17322838 0.15476792 0.3831996 -0.21204388 -0.3084966 0.2868746 -0.26934177 0.36860234 0.24378362 -0.4582188 -0.70072913 0.46341494 0.51437795 0.1339152 0.41291335 0.2953181 -0.30568784 -0.43200815 -0.54021776 -0.41096178 -0.52487314 0.7085918 0.5117838 0.27467993 0.20218614 -0.4891212 -0.7458061 0.5166951 -0.87936306 0.5166642 0.10789532 -0.1768435 0.44348136 -0.16006927 0.18609038 -1.0661683 0.044060446 -0.37068895 0.2564564 0.52619934 0.15187173 0.44356215 1.1364715 -0.15261847 -0.19549295 -0.77341086 -0.2990554 0.34598926 1.169794 -0.04261901 0.84961855 -0.45583934 0.3951166 -1.2056339 0.23353028 -0.15488717 -0.055518325 0.10176529 0.26154768 0.27304894 0.25828204 -0.5799578 0.4641242 -0.020452632 0.091744274 0.33332932 -0.067540884 -0.8664157 -0.59795165 -0.08857374 -0.06203435 -0.18022895 -0.013255513 -0.47332436 0.7766103 0.28888252 0.393912 -0.66393274 -0.24542539 -0.35959724 0.5422412 0.15396787 -0.13273054 0.34643883 0.06617551 0.78018695 -0.80311954 -0.55899686 -0.12768689 0.09322555 0.29552546 0.50419164 0.12402635 0.13588122 0.81890833 0.36507922 -0.11241244 -0.7023272 -0.89605457 0.33023912
garlic -0.6221033 0.20016344 -0.45824426 -0.050580233 0.049079437 0.672115 -0.008096437 0.2955008 -0.43851423 -0.44347414 -0.06803103 -0.08564949 -0.01528884 0.3994669 0.14455386 0.5135124 -0.18573251 -0.652565 -1.0226533 -0.06426041 -0.051246617 0.12344306 0.7560162 -0.030306602 0.4675215 -0.42983603 -0.25621268 -0.064372756 -0.52075124 0.14497861 -0.99106365 -0.086007066 0.103662 -0.7787756 0.25917736 0.17523202 0.6423829 -0.17607671 0.4207276 0.1728163 0.63890296 0.37514147 0.52614206 -0.07450107 -0.11584196 -0.111765 0.67613 0.20018113 0.6671445 -0.019838355 0.15393876 -0.5063807 -0.24984384 0.024774669 0.09567683 0.24844225 0.26001856 -0.13710159 -0.040226854 0.40842238 0.3458033 -0.20648865 -0.13101158 0.503387 0.30433688 0.47721294 0.12185796 -0.50489676 -0.6574587 0.17591852 0.027181415 -0.025667557 -0.22706138 -0.14659698 -0.7097828 -0.030034646 -0.31184527 -0.40030193 -0.4665922 0.121282436 0.18044156 -0.17652087 -0.748766 0.7301627 0.079315536 0.13457607 -0.6989044 -0.55929726 -0.03927883 -0.364857 0.61781156 0.25246444 -0.1791882 -0.48976323 -0.070893645 -0.5840141 0.44271407 -0.058261625 -0.05014922 0.111428715
vegetarian 0.015888073 -0.78184986 -0.61769116 -0.62718236 -0.74675196 0.91762805 0.27448535 -0.18486357 -0.3433779 -0.01653462 0.2822904 -0.31252968 0.44697163 -0.2321393 0.011918037 0.11193175 0.21717851 -0.8597328 -0.91524035 -0.4976402 -0.5443596 0.31897008 0.002975003 -0.14584154 0.43353269 -0.7060502 -1.3010604 0.42930183 -0.02577822 -0.03851071 0.05390473 -0.20283559 -0.14136189 -0.28810447 -0.45921144 -0.73001975 0.5862221 -0.26734632 -0.07800214 0.9583402 0.13218938 0.5211952 0.3033084 -0.5936289 0.13968962 -0.23181996 -0.31047982 0.48500848 0.58203065 0.25077322 0.37976798 -0.30085754 0.1655457 0.32223734 -0.54693127 0.057387855 0.79122233 0.2778445 -0.6213491 0.007081805 0.038400743 -0.43105528 0.2699426 0.9201955 0.21680634 0.25328717 0.86716187 -0.2764695 -0.5865178 -0.21658655 0.07798473 -0.7949269 -0.16954477 0.384167 -0.044537336 -0.5587782 -0.11435057 0.22284451 0.14581537 0.009440776 0.69207907 -0.27588496 0.21271585 -0.32951808 -0.49494466 0.24345009 0.05005426 -0.6961161 0.17904852 -0.122490704 -0.0601293 0.6823273 0.44211292 0.065577805 -0.16213757 -0.8405484 0.0072557605 -0.47119135 -0.2083569 0.09389368
reine 0.26527536 -0.06427021 0.51263386 -0.6651808 0.045681488 0.23069924 -0.17538148 0.15787305 0.037135784 -0.89841247 -0.27224556 0.26785544 0.23866136 -0.28262052 0.71111774 0.005971529 -0.12941426 -0.16151689 -0.3709293 -0.59501517 -0.7238451 0.016480839 0.7754629 0.34535885 0.42331487 -0.5391694 -0.6572251 0.18676877 -1.153237 0.031104544 -0.2297105 -0.18346673 0.042738672 -0.5425647 -0.38927448 -1.3318592 0.6785575 -0.5363923 -0.5645305 0.3978878 -0.002351573 0.21711746 1.2738383 -0.48713222 -0.27715725 -0.7298709 -0.88392836 0.10771881 1.3731177 0.07686445 0.5701717 0.04205836 0.05597007 -1.1414644 0.21637018 0.36592835 0.05458812 -0.32534763 0.123045035 -0.088138655 -0.24485412 0.07743451 -0.21575814 0.09392558 0.8829886 0.19371447 0.57688624 -0.4936485 -1.0105808 -0.6174518 0.18066452 -0.5248514 0.17913325 -0.30208904 0.5338865 0.39208847 0.26386154 -0.23116928 -0.11741999 -0.4309096 0.54857814 -0.6036409 -0.30322388 0.051887088 0.26746273 0.05632563 -0.5664875 -0.15198457 -0.18204232 0.5517144 0.5751993 0.24635294 -0.031030148 -0.048082244 0.664983 -0.6195988 0.39148912 -0.6806842 -0.56432724 0.031804502
rosa 0.2748216 0.46070686 -0.32554036 -0.06351749 -0.15210241 0.35119647 -0.18479878 0.36970848 -0.13789536 -0.56494176 -0.95522594 0.46798128 0.05658309 0.24206862 -0.45506582 -0.14144157 -0.036449455 -1.0582846 -0.28159055 -0.16235162 -0.45340458 0.7376415 0.019931164 0.045639038 0.6051727 -0.39363492 -0.36739513 -0.17639297 -0.8607521 0.51201177 0.1401889 0.10391475 0.27761433 -0.064483404 0.019504689 -0.21375541 0.60737365 -0.09649021 -0.53434503 -0.030719921 -0.00024985237 -0.07278255 0.850935 -0.62629414 -0.052098215 -0.8441521 -0.38037342 -0.04487517 0.40551597 0.5243215 0.4859602 -0.17592096 0.47357225 -0.3301757 -0.2251062 -0.42614868 -0.18876849 -0.12446585 -0.26774308 0.45062292 -0.04566134 0.45362678 0.19298989 0.19644745 0.23873574 -0.15721282 0.54712033 -0.08800109 -0.21275902 -0.33820903 -0.3651935 0.19632268 -0.37922475 -0.20952815 0.6346301 0.2030429 0.11848839 -0.06305796 0.4799241 0.019718388 0.5300419 -0.31183824 -0.13043645 0.285258 -0.19787557 -0.18295068 -0.17201692 0.18172017 0.27010927 -0.11592667 -0.32097912 0.5644462 -0.060965296 -0.30200762 0.03154596 -0.15202923 0.47830343 -0.36164868 0.03308579 -0.4240496
http://www.co-ode.org/ontologies/pizza/pizza.owl#VegetableTopping 0.5061751 -0.07874268 -0.16744006 -0.07623653 -0.2274091 1.41211 -0.7144251 -0.07077151 -0.12857482 0.12689084 -0.16133729 0.7006859 -0.55273503 0.43447277 0.42646018 -0.16330375 -0.7773431 -0.06895409 -0.71663123 -0.08925231 0.20156728 0.6184256 0.4019367 0.10175094 -0.05462999 0.052767895 0.5074095 0.01604769 -0.4909279 -0.013371327 0.24272966 -0.21630079 0.5209713 -0.6022234 -0.15518868 -0.604196 -0.07726797 0.46283215 -0.17363545 0.5031389 -0.049116936 0.07128309 0.96344036 -0.2038188 -0.19482668 -0.5915227 -0.27881047 -0.099775605 0.62495404 -0.14068885 0.32967126 -0.887004 -0.41526207 -0.37277967 -0.55069584 0.08767365 0.18017823 -0.304587 -0.6418395 0.60114175 -0.81643784 -0.41155675 -0.5846036 0.7531755 -0.0155290915 0.17339644 -0.009487003 0.11421661 -0.17618297 -0.04067077 0.6608204 0.18903777 -0.27244493 -0.6780547 0.49959263 0.48540384 0.41828665 -0.7422037 -0.25449917 0.29756856 -0.5037591 -0.9459183 -0.14197697 -0.09460226 -0.14831951 0.63413435 -0.37738892 -0.29246792 0.06278949 -0.028581977 -0.2185746 0.35081935 0.061213087 0.67777896 0.40893933 -0.29763457 0.28519714 -0.08335288 -0.52932113 -0.08286443
mushroomtopping -0.6306387 0.057028007 0.17142215 -0.7094969 -0.4559161 0.21904315 0.04716856 0.49346855 -0.17149512 -0.56017464 -0.43839824 0.45124373 -0.39620066 -0.005414109 0.6312371 0.3959124 -0.14179897 -0.5107132 -0.7056224 -0.5020644 0.09346984 0.38258427 0.344809 -0.10385603 0.34441984 -0.70902336 -0.5556532 0.11676917 -0.91566503 -0.10073672 -0.5449455 -0.4024036 0.22643441 -0.053422328 0.11392711 -0.25343025 -0.24913368 -0.17177732 0.09324907 0.44700974 0.3187019 0.8160503 0.1921693 -0.03704676 -0.5858498 -0.24574813 -0.24985096 -0.09215509 1.331174 -0.17886896 0.6248641 0.025681682 0.21431075 -0.9714901 0.08840096 -0.28392696 0.3181147 -0.07414824 0.5465016 0.06981905 -0.33803004 -0.028910885 0.17133433 0.0998367 0.7276477 -0.011509989 0.34068304 -0.35669586 -0.7924881 0.0032268523 0.15984575 0.04881499 -0.08846307 -0.2360341 0.46495923 0.2143258 0.14076646 -0.31994843 -0.05143499 -0.20080364 0.09749937 0.033134006 -0.3548681 -0.001011266 -0.13371128 0.21124914 -0.5008101 -0.38150048 0.0477222 0.29712686 0.55235165 0.22622715 0.24122381 -0.08902783 0.57236826 -0.7678089 0.15864056 -0.5266475 -0.35184646 -0.13539052
parmezan -0.21333027 0.3654067 -0.7071198 -0.49547902 0.2663372 0.16239399 0.16122209 -0.0070859613 -0.17251736 -0.43288139 -0.48540968 -0.054907564 0.21447314 0.23812802 0.2305974 0.3808603 -0.43725896 -0.7788765 -0.8281085 -0.30092573 -0.008047176 0.33837855 -0.039549705 -0.1380341 0.12279737 -0.65656114 -0.06995092 -0.28887528 -0.56831443 0.07650849 0.005416641 -0.40514657 -0.3806998 -0.58133435 -0.046829727 0.0067605693 0.0038401652 -0.48176295 -0.06481691 0.22240193 0.23906767 0.33436254 0.84958315 -0.22232963 -0.21182023 -0.739674 0.7033967 0.39275557 0.92492646 0.23669907 0.77197355 -0.34188968 -0.03011272 -0.22891027 -0.6440984 -0.48774454 0.02501187 -0.22820759 -0.03608041 0.27229545 0.23951472 -0.42164457 -0.022488574 0.34060428 0.27693903 0.24508803 0.08150289 -0.44392306 -0.47890466 -0.04328232 -0.3295141 -0.07438068 0.19634345 -0.18974356 -0.36012876 0.046895187 -0.16655809 -0.038928818 -0.19822547 -0.2895588 -0.059777465 -0.79673874 -0.62258816 0.53240037 -0.100251004 0.22845127 -0.47211266 -0.22758065 0.49264556 0.11228188 0.28421086 0.40689766 0.2777493 -0.1618192 0.3300619 -1.0124199 0.2748176 -0.427161 0.45986733 -0.65202034
americanhot 0.71041876 0.20154972 0.25610888 -0.11223369 -0.51145214 0.3880051 -0.80469203 0.65425926 -0.34324005 -0.61284137 -0.7851277 0.22419341 0.46649903 0.51397395 -0.307681 0.26033866 0.05297284 -0.5478516 -0.42138308 0.31443846 -0.5365872 0.078759275 -0.12196167 -0.22520354 0.2754889 -0.26725924 -0.5413226 -0.23763876 -0.88102174 -0.12389703 0.55596185 0.16771628 0.72241974 -0.054466315 0.009112129 -0.4256684 0.16815095 -0.54805803 0.21995708 -0.16270263 -0.47505376 -0.42954785 0.5523958 -0.6461336 -0.12238583 -0.496061 -0.26936883 0.41006607 0.2962675 -0.4696638 0.30959556 -0.2586397 0.06471758 -0.7319781 0.25945005 0.43561953 0.18647146 -0.046772048 -0.3950389 0.034025844 -0.06282247 0.020872783 0.111498155 0.21568227 -0.0042640083 0.041475818 -0.030683396 -0.083555155 -0.5440286 0.06220993 0.15552503 0.044594184 -0.30409732 -0.62256706 0.7015481 0.04414412 -0.085740276 -0.26532587 0.13325235 -0.3088762 0.52951634 0.42643207 -0.5032019 0.08350324 0.19160104 -0.29909706 -0.9531686 -0.34352425 0.07417827 0.27604288 -0.4273184 -0.006102144 0.8005704 -0.11468195 0.003769895 -0.26103237 0.82447237 0.6490773 0.06871786 0.012859813
capertopping -0.71385074 0.30337912 0.02512072 -0.121304676 -0.15977669 0.39119616 -0.06441486 0.6518591 -0.45989338 -0.8791222 -0.12391272 0.61060655 -0.29003516 0.4259148 0.5973893 0.08268095 -0.57146543 -0.44554138 -0.6797895 -0.17871124 0.25010538 0.16586624 0.45354486 -0.7197008 0.5703775 -0.8247092 -0.49242616 0.11461269 -0.46349385 -0.33872762 -0.56506634 -0.504121 0.30416122 -0.083658285 -0.1442393 -0.20051354 -0.045386277 -0.1590914 -0.0019060137 -0.10579796 0.5301694 0.6150841 0.17850335 -0.09030618 -0.5601317 0.14595386 0.042046886 -0.10217974 0.5841081 -0.35322133 0.17541696 -0.5300783 0.15743808 -0.46514887 -0.13150083 -0.042183284 0.2808855 -0.21522951 -0.04791052 -0.32567754 0.015043079 0.58929074 -0.32054225 0.15132387 0.15657867 0.0032076172 0.21127485 -0.6063186 -1.0916603 -0.085925594 0.029146189 -0.17003725 -0.51216584 0.068892024 0.39638805 0.13165988 -0.24554943 -0.20565622 0.29089397 -0.17624716 0.45348758 -0.023727117 -0.22288409 0.38759756 -0.1480887 0.21302757 -0.6165955 -0.34633926 -0.03834551 0.27929008 0.40979066 0.32137704 0.755467 -0.054170333 0.31848446 -0.27053884 0.51116586 -0.1784537 -0.23885433 -0.48320353
di 0.25319004 0.311935 -0.5401111 -0.021157594 0.3007092 1.1337827 -0.5078045 -0.08166467 -0.52395874 -0.26169294 -0.2668908 -0.111233 -0.3717123 0.37571174 0.16279939 0.1727735 -0.16803327 -1.2564673 -0.96084905 0.1817548 -0.58917636 0.016181653 1.1571383 0.0149836205 0.18348578 0.10082344 -0.22287029 -0.52924305 -0.8972505 0.13928239 -0.72681314 0.09641558 0.47831416 -0.7737912 0.25332373 -0.34895843 1.2893668 -0.73373103 0.06111511 0.39618632 0.6753929 -0.25855428 1.2691045 -0.72620916 -0.10565745 -0.4934016 -0.06347767 0.54259205 0.41673204 0.23438127 0.13628837 -0.20150119 -0.121594936 -0.069082744 0.29060996 0.61338496 0.008412122 0.03580486 -0.07194201 1.1155076 -0.1133972 -0.23410074 -0.44415215 0.37894717 0.5511876 0.65241736 -0.14756031 -0.4567097 -0.24482949 -0.40416786 -0.26147085 0.042263508 -0.017743623 -0.30527368 0.19072148 0.41976282 -0.055537112 -0.7147534 -0.62534004 0.3495353 0.7524111 -0.30529726 -0.4978671 0.6320947 0.28947726 -0.3377795 -0.457544 -0.08265426 0.35007027 -0.37701768 -0.043485306 -0.05655621 -0.13965805 -0.3956484 -0.111430734 -0.6487349 0.117369376 -0.15781817 -0.45797685 0.37875113
frutti 0.27423772 0.41076067 -0.44157124 0.27221513 -0.39969814 0.799753 -0.62019026 0.085225195 -0.12664296 -0.07334113 -0.35705206 0.38186738 0.020564316 0.23107105 -0.322989 0.80348355 -0.17602077 -1.0803019 -0.82457185 0.12938558 -0.68916315 0.4970852 0.76517093 0.5140984 0.78803873 -0.5654905 -0.4269379 -0.16903293 -1.0478426 0.009012701 -0.69457215 0.069021836 0.36426875 -0.6359876 -0.006215663 -0.39034662 1.2226961 -0.38888028 0.47501084 0.091834106 0.61484987 -0.23174034 0.9420432 -0.39434254 0.11360785 -0.44388175 0.2888343 0.11905279 0.0051354184 -0.21004505 0.6809093 -0.6690487 -0.0061601796 -0.122140706 0.060445752 0.46348467 -0.39808726 -0.12263451 0.17925547 0.75338894 -0.078274645 -0.38757128 -0.17791262 0.16513532 -0.032487836 0.7026438 -0.3542366 -0.5200254 -0.41352445 -0.2345668 0.4748139 0.21017124 -0.18386887 -0.26502448 -0.44342864 0.15536822 -0.10957601 -0.7137965 -0.16151749 -0.07267282 0.81573355 -0.40219694 -0.21791749 0.60579264 0.15095386 0.11984361 -0.64386314 -0.5550819 -0.12386381 -0.47458375 -0.28241146 0.21214439 -0.38428804 -0.17461282 -0.18913132 -0.1389025 0.07107489 0.07490904 -0.2752394 0.51365733
mare 0.37602094 0.09964423 -0.21915032 0.3241682 -0.23601222 0.89681566 -0.44966182 -0.056241676 -0.49222347 0.028353581 -0.5467612 -0.18493149 0.28033417 0.65561 -0.40206602 0.35279405 -0.23446105 -0.64620256 -0.99053353 0.0380798 -0.6383189 0.2682818 1.0234493 0.6890526 0.8314265 -0.2583928 -0.326478 -0.24192731 -1.3951105 0.43197557 -0.71875274 -0.101247296 0.6842537 -0.6978111 -0.2828312 -0.16202414 1.321286 -0.6659528 0.1625233 0.27238587 0.71155703 0.28476244 1.155828 -0.17941798 -0.07539837 -0.3574465 -0.19814107 0.1394039 0.40242025 0.27467453 0.41435587 -0.7843003 -0.34068576 -0.45237184 0.13890108 0.45259514 -0.07445824 0.26586527 -0.15766566 0.9394547 0.06068662 -0.20617127 0.31941378 0.43154073 -0.12169949 0.53674024 -0.37620708 -0.45871413 -0.8467978 -0.20191763 -0.2662958 -0.44483936 -0.21780661 -0.22184928 -0.25481525 0.6548751 0.22772795 -0.31902245 -0.44734928 0.32721317 0.7573473 -0.49630174 -0.8874881 0.6255431 0.34157088 -0.41362572 -0.95850897 -0.34480485 0.23963764 -0.33369896 0.09264266 0.039089177 -0.7674271 -0.7107391 -0.33506694 -0.13687354 0.649067 -0.15481605 -0.69320846 0.2950662
peperonisausagetopping -0.26360548 -0.057904523 -0.08577832 -0.31323582 -0.40480307 0.035166986 -0.04698263 0.70527744 -0.1998511 -0.74923515 -0.39441642 0.53644484 -0.34341854 0.433326 0.0055524977 0.61727893 -0.05958587 -0.68229806 -0.5233092 0.14676696 0.15488172 -0.14873213 0.14664397 -0.22283445 0.3472275 -0.52578443 -0.158702 0.31106675 -1.0756946 0.012595667 -0.03622665 -0.17180742 0.60074097 0.09052323 0.12005471 -0.19329803 -0.10984891 -0.46350193 0.25891036 -0.1592357 0.05108505 0.5229747 -0.04700495 -0.058991875 -0.6003712 0.14224899 -0.08068662 0.3080451 0.68033606 -0.27373403 0.27426112 -0.5255984 -0.0165445 -0.77740973 0.49114802 0.25014555 0.577085 -0.15008812 0.027398175 0.06556827 0.16787906 0.46644196 0.24571148 0.008869109 0.8177625 -0.20074934 0.13136715 -0.151946 -0.69165325 0.3424553 0.30720025 0.5559548 -0.051278975 -0.3376594 0.6689815 -0.09224263 -0.21290724 -0.4112803 0.18930233 0.029410282 0.10473312 0.35398328 -0.78547037 0.120988235 0.209322 0.3164772 -0.60063297 -0.11009385 0.19281021 0.11650007 0.25317398 0.18056813 0.7955906 -0.5183096 -0.07605231 -0.47249347 0.8269436 0.15160637 0.30797097 -0.33341554
comment 0.022801809 0.23110834 -0.72705185 0.35041946 -0.034280315 -0.010057442 -0.08343178 0.25784817 -0.46232814 0.078674644 -0.45781758 -0.0027413715 -0.40142244 -0.4212698 -0.08633102 0.078197174 -0.39038935 -1.0020753 0.136658 -0.27060205 -0.6141519 0.5143359 0.05658284 0.6364281 0.2082991 -0.26871622 -0.6912204 0.46913123 0.17278276 -0.2552805 -0.34056175 -0.078001425 -0.8846386 0.33719474 -0.12016983 -1.0640497 0.47069886 -0.05816527 0.3038505 0.820252 0.17717767 -0.17420861 -0.04938267 -0.3035113 0.46041584 0.12265519 -0.054202795 0.33279845 0.5228509 -0.04016492 0.2607063 0.019472731 -0.103699505 0.0009396527 0.23494247 0.12707907 0.42730546 -0.5967497 -0.18111321 0.09368807 0.3615054 0.25996608 0.5238318 -0.21694298 0.57687163 0.0959853 0.56509346 0.1972273 -0.15609334 -0.105544694 0.22242889 0.15106848 -0.26902112 0.20195997 0.47138393 -0.33327276 0.31784704 0.3606555 -0.5078516 0.45963457 0.45874044 0.049151603 -0.18744256 -0.02013949 -0.34438452 0.72916085 -0.09689398 -0.65305364 -0.12801698 -0.39174846 -0.075450286 0.63878286 0.09325498 0.09662615 -0.4895701 -0.8964631 0.34578034 -0.5919931 -0.42019626 -0.12789683
vegetarianpizza2 -0.16547245 -0.4799096 -0.322227 -0.84125614 -0.2429205 1.0202526 -0.17930618 -0.006527164 0.13388343 -0.14318809 0.028470168 -0.6224754 0.53084105 -0.0018386599 -0.1501063 0.39768994 0.14588067 -0.16002978 -0.85945916 -0.57555735 -0.11708397 0.41902128 -0.23321128 -0.29856494 0.2965226 -1.004464 -0.9610642 0.27889737 -0.01617294 -0.3972723 0.31350198 -0.22540005 0.05103711 -0.15087071 -0.39757776 0.033674017 0.34415236 -0.21819776 0.31809694 0.33009836 0.036818195 0.39876354 0.82743686 -0.7527822 0.030678425 -0.16542824 0.031912424 0.27036735 0.57194763 0.12200374 0.00024922885 -0.4737261 0.16534178 0.21037571 -0.8382022 0.068987295 0.62542975 0.36450517 -0.38536644 0.0613159 -0.059103098 -0.16569649 0.1793105 0.5834789 -0.043895382 -0.11304096 0.8919516 -0.013942683 -0.9381716 -0.13089445 0.18201481 -0.4394376 -0.066143245 0.07084213 0.17033651 -0.3279677 -0.239785 0.12438593 -0.0032213524 0.1915562 0.63946533 -0.2631105 -0.040273175 -0.020878248 -0.40310472 -0.19292259 0.00024959838 -0.6725026 -0.12849335 -0.009609711 -0.13829447 0.28047833 0.64581025 0.52996075 -0.12901476 -0.6143173 0.25303158 -0.23053561 -0.5064124 -0.078120545
